<def f='opencv/modules/objdetect/test/test_latentsvmdetector.cpp' l='184' ll='201' type='bool compareResults(const vector&lt;LatentSvmDetector::ObjectDetection&gt; &amp; calc, const vector&lt;LatentSvmDetector::ObjectDetection&gt; &amp; valid, int eps, float threshold)'/>
<use f='opencv/modules/objdetect/test/test_latentsvmdetector.cpp' l='262' u='c' c='_ZN21LatentSVMDetectorTest3runEi'/>
<use f='opencv/modules/objdetect/test/test_latentsvmdetector.cpp' l='267' u='c' c='_ZN21LatentSVMDetectorTest3runEi'/>
<use f='opencv/modules/objdetect/test/test_latentsvmdetector.cpp' l='272' u='c' c='_ZN21LatentSVMDetectorTest3runEi'/>
