<use f='opencv/modules/objdetect/src/latentsvmdetector.cpp' l='261' u='c' c='_ZN2cv17LatentSvmDetector6detectERKNS_3MatERSt6vectorINS0_15ObjectDetectionESaIS5_EEfi'/>
<use f='opencv/modules/objdetect/test/test_latentsvmdetector.cpp' l='114' u='c' c='_ZN24CV_LatentSVMDetectorTest3runEi'/>
