<dec f='opencv/modules/objdetect/include/opencv2/objdetect/objdetect.hpp' l='310' type='void cv::LatentSvmDetector::LatentSvmDetector(const vector&lt;string&gt; &amp; filenames, const vector&lt;string&gt; &amp; classNames = vector&lt;string&gt;())'/>
<def f='opencv/modules/objdetect/src/latentsvmdetector.cpp' l='162' ll='165' type='void cv::LatentSvmDetector::LatentSvmDetector(const vector&lt;string&gt; &amp; filenames, const vector&lt;string&gt; &amp; _classNames = vector&lt;string&gt;())'/>
<use f='opencv/modules/objdetect/test/test_latentsvmdetector.cpp' l='232' u='c' c='_ZN21LatentSVMDetectorTest3runEi'/>
<use f='opencv/modules/objdetect/test/test_latentsvmdetector.cpp' l='237' u='c' c='_ZN21LatentSVMDetectorTest3runEi'/>
