<dec f='opencv/modules/core/include/opencv2/core/core.hpp' l='4146' type='bool cv::FileStorage::open(const string &amp; filename, int flags, const string &amp; encoding = string())'/>
<doc f='opencv/modules/core/include/opencv2/core/core.hpp' l='4145'>//! opens file storage for reading or writing. The previous storage is closed with release()</doc>
<use f='opencv/apps/traincascade/cascadeclassifier.cpp' l='541' u='c' c='_ZN19CvCascadeClassifier4loadESs'/>
<use f='opencv/apps/visualisation/opencv_visualisation.cpp' l='107' u='c' c='main'/>
<use f='opencv/modules/calib3d/test/test_stereomatching.cpp' l='432' u='c' c='_ZN21CV_StereoMatchingTest3runEi'/>
<use f='opencv/modules/core/src/persistence.cpp' l='5172' u='c' c='_ZN2cv11FileStorageC1ERKSsiS2_'/>
<def f='opencv/modules/core/src/persistence.cpp' l='5190' ll='5198' type='bool cv::FileStorage::open(const string &amp; filename, int flags, const string &amp; encoding = string())'/>
<use f='opencv/modules/core/test/test_io.cpp' l='193' u='c' c='_ZN11Core_IOTest3runEi'/>
<use f='opencv/modules/core/test/test_io.cpp' l='433' u='c' c='_ZN13CV_MiscIOTest3runEi'/>
<use f='opencv/modules/features2d/test/test_descriptors_regression.cpp' l='250' u='c' c='_ZN26CV_DescriptorExtractorTest14regressionTestEv'/>
<use f='opencv/modules/features2d/test/test_detectors_regression.cpp' l='213' u='c' c='_ZN22CV_FeatureDetectorTest14regressionTestEv'/>
<use f='opencv/modules/features2d/test/test_fast.cpp' l='99' u='c' c='_ZN11CV_FastTest3runEi'/>
<use f='opencv/modules/features2d/test/test_fast.cpp' l='108' u='c' c='_ZN11CV_FastTest3runEi'/>
<use f='opencv/modules/gpu/test/test_imgproc.cpp' l='426' u='c' c='_ZN19MeanShift_Proc_Test14UnsafeTestBodyEv'/>
<use f='opencv/modules/gpu/test/test_imgproc.cpp' l='428' u='c' c='_ZN19MeanShift_Proc_Test14UnsafeTestBodyEv'/>
<use f='opencv/modules/imgproc/test/test_houghLines.cpp' l='117' u='c' c='_ZN17CV_HoughLinesTest8run_testEi'/>
<use f='opencv/modules/imgproc/test/test_houghLines.cpp' l='125' u='c' c='_ZN17CV_HoughLinesTest8run_testEi'/>
<use f='opencv/modules/legacy/test/test_stereomatching.cpp' l='432' u='c' c='_ZN21CV_StereoMatchingTest3runEi'/>
<use f='opencv/modules/ml/test/test_mltests2.cpp' l='526' u='c' c='_ZN13CV_MLBaseTest3runEi'/>
<use f='opencv/modules/nonfree/test/test_features2d.cpp' l='230' u='c' c='_ZN22CV_FeatureDetectorTest14regressionTestEv'/>
<use f='opencv/modules/nonfree/test/test_features2d.cpp' l='460' u='c' c='_ZN26CV_DescriptorExtractorTest14regressionTestEv'/>
<use f='opencv/modules/objdetect/test/test_cascadeandhog.cpp' l='155' u='c' c='_ZN15CV_DetectorTest3runEi'/>
<use f='opencv/modules/objdetect/test/test_cascadeandhog.cpp' l='177' u='c' c='_ZN15CV_DetectorTest3runEi'/>
<use f='opencv/modules/objdetect/test/test_cascadeandhog.cpp' l='534' u='c' c='_ZN46Objdetect_HOGDetectorReadWrite_regression_Test8TestBodyEv'/>
<use f='opencv/modules/objdetect/test/test_latentsvmdetector.cpp' l='280' u='c' c='_ZN21LatentSVMDetectorTest3runEi'/>
<use f='opencv/modules/ts/src/ts_perf.cpp' l='188' u='c' c='_ZN4perf10Regression4initERKSsS2_'/>
<use f='opencv/modules/ts/src/ts_perf.cpp' l='227' u='c' c='_ZN4perf10Regression5writeEv'/>
