<dec f='opencv/modules/objdetect/test/test_latentsvmdetector.cpp' l='137' type='void LatentSVMDetectorTest::run(int )'/>
<inh f='opencv/modules/ts/include/opencv2/ts/ts.hpp' l='235' c='_ZN6cvtest8BaseTest3runEi'/>
<def f='opencv/modules/objdetect/test/test_latentsvmdetector.cpp' l='203' ll='306' type='void LatentSVMDetectorTest::run(int )'/>
<doc f='opencv/modules/objdetect/test/test_latentsvmdetector.cpp' l='203'>/* start_from */</doc>
