<dec f='opencv/modules/ocl/include/opencv2/ocl/ocl.hpp' l='1050' type='void cv::ocl::HOGDescriptor::setSVMDetector(const vector&lt;float&gt; &amp; detector)'/>
<use f='opencv/modules/ocl/perf/perf_hog.cpp' l='92' u='c' c='_ZN18OCL_HOGFixture_HOG12PerfTestBodyEv'/>
<def f='opencv/modules/ocl/src/hog.cpp' l='188' ll='210' type='void cv::ocl::HOGDescriptor::setSVMDetector(const vector&lt;float&gt; &amp; _detector)'/>
<use f='opencv/modules/ocl/test/test_objdetect.cpp' l='144' u='c' c='_ZN15HOG_Detect_Test11OCLTestBodyEv'/>
<use f='opencv/modules/ocl/test/test_objdetect.cpp' l='149' u='c' c='_ZN15HOG_Detect_Test11OCLTestBodyEv'/>
<use f='opencv/modules/ocl/test/test_objdetect.cpp' l='154' u='c' c='_ZN15HOG_Detect_Test11OCLTestBodyEv'/>
