<dec f='opencv/modules/ocl/include/opencv2/ocl/ocl.hpp' l='289' type='void cv::ocl::oclMat::upload(const cv::Mat &amp; m)'/>
<use f='opencv/modules/ocl/include/opencv2/ocl/matrix_operations.hpp' l='131' u='c' c='_ZN2cv3ocl6oclMatC1EiiiPvm'/>
<use f='opencv/modules/ocl/include/opencv2/ocl/matrix_operations.hpp' l='153' u='c' c='_ZN2cv3ocl6oclMatC1ENS_5Size_IiEEiPvm'/>
<use f='opencv/modules/ocl/include/opencv2/ocl/matrix_operations.hpp' l='229' u='c' c='_ZN2cv3ocl6oclMatC1ERKNS_3MatE'/>
<use f='opencv/modules/ocl/include/opencv2/ocl/matrix_operations.hpp' l='263' u='c' c='_ZN2cv3ocl6oclMataSERKNS_3MatE'/>
<doc f='opencv/modules/ocl/include/opencv2/ocl/ocl.hpp' l='288'>//! pefroms blocking upload data to oclMat.</doc>
<use f='opencv/modules/nonfree/src/surf_ocl.cpp' l='337' u='c' c='_ZN2cv3ocl8SURF_OCL15uploadKeypointsERKSt6vectorINS_8KeyPointESaIS3_EERNS0_6oclMatE'/>
<use f='opencv/modules/nonfree/src/surf_ocl.cpp' l='465' u='c' c='_ZNK2cv3ocl8SURF_OCLclERKNS_11_InputArrayES4_RSt6vectorINS_8KeyPointESaIS6_EERKNS_12_OutputArrayEb'/>
<use f='opencv/modules/nonfree/src/surf_ocl.cpp' l='478' u='c' c='_ZNK2cv3ocl8SURF_OCLclERKNS_11_InputArrayES4_RSt6vectorINS_8KeyPointESaIS6_EERKNS_12_OutputArrayEb'/>
<use f='opencv/modules/ocl/perf/perf_ml.cpp' l='98' u='c' c='_ZN14KNNFixture_KNN12PerfTestBodyEv'/>
<use f='opencv/modules/ocl/src/brute_force_matcher.cpp' l='637' u='c' c='_ZN2cv3ocl26BruteForceMatcher_OCL_base17makeGpuCollectionERNS0_6oclMatES3_RKSt6vectorIS2_SaIS2_EE'/>
<use f='opencv/modules/ocl/src/brute_force_matcher.cpp' l='661' u='c' c='_ZN2cv3ocl26BruteForceMatcher_OCL_base17makeGpuCollectionERNS0_6oclMatES3_RKSt6vectorIS2_SaIS2_EE'/>
<use f='opencv/modules/ocl/src/brute_force_matcher.cpp' l='662' u='c' c='_ZN2cv3ocl26BruteForceMatcher_OCL_base17makeGpuCollectionERNS0_6oclMatES3_RKSt6vectorIS2_SaIS2_EE'/>
<use f='opencv/modules/ocl/src/canny.cpp' l='322' u='c' c='_ZN2cv3ocl5canny24edgesHysteresisLocal_gpuERNS0_6oclMatES3_S3_ii'/>
<use f='opencv/modules/ocl/src/canny.cpp' l='355' u='c' c='_ZN2cv3ocl5canny25edgesHysteresisGlobal_gpuERNS0_6oclMatES3_S3_S3_ii'/>
<use f='opencv/modules/ocl/src/color.cpp' l='602' u='c' c='_ZL15cvtColor_callerRKN2cv3ocl6oclMatERS1_ii'/>
<use f='opencv/modules/ocl/src/color.cpp' l='609' u='c' c='_ZL15cvtColor_callerRKN2cv3ocl6oclMatERS1_ii'/>
<use f='opencv/modules/ocl/src/gftt.cpp' l='341' u='c' c='_ZN2cv3ocl31GoodFeaturesToTrackDetector_OCLclERKNS0_6oclMatERS2_S4_'/>
<use f='opencv/modules/ocl/src/hog.cpp' l='204' u='c' c='_ZN2cv3ocl13HOGDescriptor14setSVMDetectorERKSt6vectorIfSaIfEE'/>
<use f='opencv/modules/ocl/src/hog.cpp' l='242' u='c' c='_ZN2cv3ocl13HOGDescriptor11init_bufferERKNS0_6oclMatENS_5Size_IiEE'/>
<use f='opencv/modules/ocl/src/kalman.cpp' l='128' u='c' c='_ZN2cv3ocl12KalmanFilter7correctERKNS0_6oclMatE'/>
<use f='opencv/modules/ocl/src/kmeans.cpp' l='436' u='c' c='_ZN2cv3ocl6kmeansERKNS0_6oclMatEiRS1_NS_12TermCriteriaEiiS4_'/>
<use f='opencv/modules/ocl/src/kmeans.cpp' l='438' u='c' c='_ZN2cv3ocl6kmeansERKNS0_6oclMatEiRS1_NS_12TermCriteriaEiiS4_'/>
<def f='opencv/modules/ocl/src/matrix_operations.cpp' l='129' ll='162' type='void cv::ocl::oclMat::upload(const cv::Mat &amp; m)'/>
<use f='opencv/modules/ocl/src/optical_flow_farneback.cpp' l='153' u='c' c='_ZN2cv3ocl20FarnebackOpticalFlow21setGaussianBlurKernelEPKfi'/>
<use f='opencv/modules/ocl/src/optical_flow_farneback.cpp' l='340' u='c' c='_ZN2cv3ocl20FarnebackOpticalFlow28setPolynomialExpansionConstsEid'/>
<use f='opencv/modules/ocl/src/optical_flow_farneback.cpp' l='341' u='c' c='_ZN2cv3ocl20FarnebackOpticalFlow28setPolynomialExpansionConstsEid'/>
<use f='opencv/modules/ocl/src/optical_flow_farneback.cpp' l='342' u='c' c='_ZN2cv3ocl20FarnebackOpticalFlow28setPolynomialExpansionConstsEid'/>
<use f='opencv/modules/ocl/src/svm.cpp' l='673' u='c' c='_ZNK2cv3ocl9CvSVM_OCL7predictEPK5CvMatPS2_'/>
<use f='opencv/modules/ocl/src/svm.cpp' l='700' u='c' c='_ZNK2cv3ocl9CvSVM_OCL7predictEPK5CvMatPS2_'/>
<use f='opencv/modules/ocl/src/svm.cpp' l='705' u='c' c='_ZNK2cv3ocl9CvSVM_OCL7predictEPK5CvMatPS2_'/>
<use f='opencv/modules/ocl/src/svm.cpp' l='711' u='c' c='_ZNK2cv3ocl9CvSVM_OCL7predictEPK5CvMatPS2_'/>
<use f='opencv/modules/ocl/src/svm.cpp' l='721' u='c' c='_ZNK2cv3ocl9CvSVM_OCL7predictEPK5CvMatPS2_'/>
<use f='opencv/modules/ocl/src/svm.cpp' l='799' u='c' c='_ZN2cv3ocl15CvSVMSolver_ocl13solve_genericER17CvSVMSolutionInfo'/>
<use f='opencv/modules/ocl/test/test_calib3d.cpp' l='78' u='c' c='_ZN29StereoMatchBM_Regression_Test11OCLTestBodyEv'/>
<use f='opencv/modules/ocl/test/test_calib3d.cpp' l='79' u='c' c='_ZN29StereoMatchBM_Regression_Test11OCLTestBodyEv'/>
<use f='opencv/modules/ocl/test/test_calib3d.cpp' l='124' u='c' c='_ZN29StereoMatchBP_Regression_Test11OCLTestBodyEv'/>
<use f='opencv/modules/ocl/test/test_calib3d.cpp' l='125' u='c' c='_ZN29StereoMatchBP_Regression_Test11OCLTestBodyEv'/>
<use f='opencv/modules/ocl/test/test_calib3d.cpp' l='180' u='c' c='_ZN39StereoMatchConstSpaceBP_Regression_Test11OCLTestBodyEv'/>
<use f='opencv/modules/ocl/test/test_calib3d.cpp' l='181' u='c' c='_ZN39StereoMatchConstSpaceBP_Regression_Test11OCLTestBodyEv'/>
<use f='opencv/modules/ocl/test/test_kalman.cpp' l='83' u='c' c='_ZN20Kalman_Accuracy_Test11OCLTestBodyEv'/>
<use f='opencv/modules/ocl/test/test_kalman.cpp' l='135' u='c' c='_ZN20Kalman_Accuracy_Test11OCLTestBodyEv'/>
<use f='opencv/modules/ocl/test/test_kmeans.cpp' l='109' u='c' c='_ZN15Kmeans_Mat_Test11OCLTestBodyEv'/>
<use f='opencv/modules/ocl/test/test_kmeans.cpp' l='111' u='c' c='_ZN15Kmeans_Mat_Test11OCLTestBodyEv'/>
<use f='opencv/modules/ocl/test/test_ml.cpp' l='103' u='c' c='_ZN17KNN_Accuracy_Test11OCLTestBodyEv'/>
<use f='opencv/modules/ocl/test/test_ml.cpp' l='108' u='c' c='_ZN17KNN_Accuracy_Test11OCLTestBodyEv'/>
<use f='opencv/modules/ocl/test/test_objdetect.cpp' l='215' u='c' c='_ZN4Haar5SetUpEv'/>
<use f='opencv/modules/ocl/test/test_optflow.cpp' l='204' u='c' c='_ZN15Sparse_Mat_Test11OCLTestBodyEv'/>
