<dec f='opencv/modules/objdetect/test/test_latentsvmdetector.cpp' l='63' type='void CV_LatentSVMDetectorTest::run(int )'/>
<inh f='opencv/modules/ts/include/opencv2/ts/ts.hpp' l='235' c='_ZN6cvtest8BaseTest3runEi'/>
<def f='opencv/modules/objdetect/test/test_latentsvmdetector.cpp' l='75' ll='130' type='void CV_LatentSVMDetectorTest::run(int )'/>
<doc f='opencv/modules/objdetect/test/test_latentsvmdetector.cpp' l='75'>/* start_from */</doc>
