<use f='opencv/modules/objdetect/test/test_latentsvmdetector.cpp' l='257' u='c' c='_ZN21LatentSVMDetectorTest3runEi'/>
<use f='opencv/modules/objdetect/test/test_latentsvmdetector.cpp' l='258' u='c' c='_ZN21LatentSVMDetectorTest3runEi'/>
<use f='opencv/modules/objdetect/test/test_latentsvmdetector.cpp' l='259' u='c' c='_ZN21LatentSVMDetectorTest3runEi'/>
