<dec f='opencv/modules/core/include/opencv2/core/gpumat.hpp' l='189' type='void cv::gpu::GpuMat::upload(const cv::Mat &amp; m)'/>
<doc f='opencv/modules/core/include/opencv2/core/gpumat.hpp' l='188'>//! pefroms blocking upload data to GpuMat.</doc>
<use f='opencv/modules/core/src/gpumat.cpp' l='425' u='c' c='_ZN2cv3gpu6GpuMatC1ERKNS_3MatE'/>
<def f='opencv/modules/core/src/gpumat.cpp' l='593' ll='600' type='void cv::gpu::GpuMat::upload(const cv::Mat &amp; m)'/>
<use f='opencv/modules/gpu/perf/perf_core.cpp' l='79' u='c' c='_ZN22Sz_Depth_Cn_Core_Merge12PerfTestBodyEv'/>
<use f='opencv/modules/gpu/perf/perf_imgproc.cpp' l='963' u='c' c='_ZN34Sz_KernelSz_Ccorr_ImgProc_Convolve12PerfTestBodyEv'/>
<use f='opencv/modules/gpu/perf/perf_imgproc.cpp' l='966' u='c' c='_ZN34Sz_KernelSz_Ccorr_ImgProc_Convolve12PerfTestBodyEv'/>
<use f='opencv/modules/gpu/perf/perf_video.cpp' l='579' u='c' c='_ZN33Video_DISABLED_Video_FGDStatModel12PerfTestBodyEv'/>
<use f='opencv/modules/gpu/perf/perf_video.cpp' l='596' u='c' c='_ZN33Video_DISABLED_Video_FGDStatModel12PerfTestBodyEv'/>
<use f='opencv/modules/gpu/perf/perf_video.cpp' l='714' u='c' c='_ZN31Video_Cn_LearningRate_Video_MOG12PerfTestBodyEv'/>
<use f='opencv/modules/gpu/perf/perf_video.cpp' l='741' u='c' c='_ZN31Video_Cn_LearningRate_Video_MOG12PerfTestBodyEv'/>
<use f='opencv/modules/gpu/perf/perf_video.cpp' l='869' u='c' c='_ZN28Video_Cn_DISABLED_Video_MOG212PerfTestBodyEv'/>
<use f='opencv/modules/gpu/perf/perf_video.cpp' l='896' u='c' c='_ZN28Video_Cn_DISABLED_Video_MOG212PerfTestBodyEv'/>
<use f='opencv/modules/gpu/perf/perf_video.cpp' l='1002' u='c' c='_ZN37Video_Cn_Video_MOG2GetBackgroundImage12PerfTestBodyEv'/>
<use f='opencv/modules/gpu/perf/perf_video.cpp' l='1114' u='c' c='_ZN30Video_Cn_MaxFeatures_Video_GMG12PerfTestBodyEv'/>
<use f='opencv/modules/gpu/perf/perf_video.cpp' l='1146' u='c' c='_ZN30Video_Cn_MaxFeatures_Video_GMG12PerfTestBodyEv'/>
<use f='opencv/modules/gpu/src/arithm.cpp' l='337' u='c' c='_ZN2cv3gpu3LUTERKNS0_6GpuMatERKNS_3MatERS1_RNS0_6StreamE'/>
<use f='opencv/modules/gpu/src/bilateral_filter.cpp' l='86' u='c' c='_ZN12_GLOBAL__N_125calc_color_weighted_tableERN2cv3gpu6GpuMatEfi'/>
<use f='opencv/modules/gpu/src/bilateral_filter.cpp' l='102' u='c' c='_ZN12_GLOBAL__N_126calc_space_weighted_filterERN2cv3gpu6GpuMatEif'/>
<use f='opencv/modules/gpu/src/brute_force_matcher.cpp' l='325' u='c' c='_ZN2cv3gpu26BruteForceMatcher_GPU_base17makeGpuCollectionERNS0_6GpuMatES3_RKSt6vectorIS2_SaIS2_EE'/>
<use f='opencv/modules/gpu/src/brute_force_matcher.cpp' l='349' u='c' c='_ZN2cv3gpu26BruteForceMatcher_GPU_base17makeGpuCollectionERNS0_6GpuMatES3_RKSt6vectorIS2_SaIS2_EE'/>
<use f='opencv/modules/gpu/src/brute_force_matcher.cpp' l='350' u='c' c='_ZN2cv3gpu26BruteForceMatcher_GPU_base17makeGpuCollectionERNS0_6GpuMatES3_RKSt6vectorIS2_SaIS2_EE'/>
<use f='opencv/modules/gpu/src/cascadeclassifier.cpp' l='626' u='c' c='_ZN2cv3gpu21CascadeClassifier_GPU10LbpCascade4readERKNS_8FileNodeE'/>
<use f='opencv/modules/gpu/src/cascadeclassifier.cpp' l='627' u='c' c='_ZN2cv3gpu21CascadeClassifier_GPU10LbpCascade4readERKNS_8FileNodeE'/>
<use f='opencv/modules/gpu/src/cascadeclassifier.cpp' l='628' u='c' c='_ZN2cv3gpu21CascadeClassifier_GPU10LbpCascade4readERKNS_8FileNodeE'/>
<use f='opencv/modules/gpu/src/cascadeclassifier.cpp' l='629' u='c' c='_ZN2cv3gpu21CascadeClassifier_GPU10LbpCascade4readERKNS_8FileNodeE'/>
<use f='opencv/modules/gpu/src/cascadeclassifier.cpp' l='630' u='c' c='_ZN2cv3gpu21CascadeClassifier_GPU10LbpCascade4readERKNS_8FileNodeE'/>
<use f='opencv/modules/gpu/src/cascadeclassifier.cpp' l='631' u='c' c='_ZN2cv3gpu21CascadeClassifier_GPU10LbpCascade4readERKNS_8FileNodeE'/>
<use f='opencv/modules/gpu/src/fgd_bgfg.cpp' l='587' u='c' c='_ZN12_GLOBAL__N_121findForegroundRegionsERN2cv3gpu6GpuMatERNS0_3MatERSt6vectorIS6_INS0_6Point_IiEESaIS8_EESaISA_EEP12CvMemStorageRKNS1_12FGDStatModel6ParamsE'/>
<use f='opencv/modules/gpu/src/filtering.cpp' l='136' u='c' c='_ZN12_GLOBAL__N_115normalizeKernelERKN2cv3MatERNS0_3gpu6GpuMatEiPib'/>
<use f='opencv/modules/gpu/src/gftt.cpp' l='166' u='c' c='_ZN2cv3gpu31GoodFeaturesToTrackDetector_GPUclERKNS0_6GpuMatERS2_S4_'/>
<use f='opencv/modules/gpu/src/hog.cpp' l='171' u='c' c='_ZN2cv3gpu13HOGDescriptor14setSVMDetectorERKSt6vectorIfSaIfEE'/>
<use f='opencv/modules/gpu/src/imgproc.cpp' l='901' u='c' c='_ZN2cv3gpu10evenLevelsERNS0_6GpuMatEiii'/>
<use f='opencv/modules/gpu/src/orb.cpp' l='470' u='c' c='_ZN2cv3gpu7ORB_GPUC1Eifiiiiii'/>
<use f='opencv/modules/gpu/test/test_bgfg.cpp' l='125' u='c' c='_ZN24FGDStatModel_Update_Test14UnsafeTestBodyEv'/>
<use f='opencv/modules/gpu/test/test_optflow.cpp' l='276' u='c' c='_ZN28PyrLKOpticalFlow_Sparse_Test14UnsafeTestBodyEv'/>
<use f='opencv/modules/gpu/test/test_stream.cpp' l='90' u='c' c='_ZN17Async_MemSet_Test14UnsafeTestBodyEv'/>
<use f='opencv/modules/nonfree/src/surf_gpu.cpp' l='296' u='c' c='_ZN2cv3gpu8SURF_GPU15uploadKeypointsERKSt6vectorINS_8KeyPointESaIS3_EERNS0_6GpuMatE'/>
<use f='opencv/modules/stitching/include/opencv2/stitching/detail/warpers.hpp' l='355' u='c' c='_ZN2cv6detail14PlaneWarperGpu4warpERKNS_3MatES4_S4_iiRS2_'/>
<use f='opencv/modules/stitching/include/opencv2/stitching/detail/warpers.hpp' l='364' u='c' c='_ZN2cv6detail14PlaneWarperGpu4warpERKNS_3MatES4_S4_S4_iiRS2_'/>
<use f='opencv/modules/stitching/include/opencv2/stitching/detail/warpers.hpp' l='401' u='c' c='_ZN2cv6detail18SphericalWarperGpu4warpERKNS_3MatES4_S4_iiRS2_'/>
<use f='opencv/modules/stitching/include/opencv2/stitching/detail/warpers.hpp' l='433' u='c' c='_ZN2cv6detail20CylindricalWarperGpu4warpERKNS_3MatES4_S4_iiRS2_'/>
<use f='opencv/modules/stitching/src/blenders.cpp' l='498' u='c' c='_ZN2cv6detail19createLaplacePyrGpuERKNS_3MatEiRSt6vectorIS1_SaIS1_EE'/>
<use f='opencv/modules/stitching/src/blenders.cpp' l='541' u='c' c='_ZN2cv6detail29restoreImageFromLaplacePyrGpuERSt6vectorINS_3MatESaIS2_EE'/>
<use f='opencv/modules/stitching/src/matchers.cpp' l='213' u='c' c='_ZN12_GLOBAL__N_110GpuMatcher5matchERKN2cv6detail13ImageFeaturesES5_RNS2_11MatchesInfoE'/>
<use f='opencv/modules/stitching/src/matchers.cpp' l='214' u='c' c='_ZN12_GLOBAL__N_110GpuMatcher5matchERKN2cv6detail13ImageFeaturesES5_RNS2_11MatchesInfoE'/>
<use f='opencv/modules/stitching/src/matchers.cpp' l='456' u='c' c='_ZN2cv6detail21SurfFeaturesFinderGpu4findERKNS_3MatERNS0_13ImageFeaturesE'/>
<use f='opencv/modules/superres/src/input_array_utility.cpp' l='86' u='c' c='_ZN2cv8superres12arrGetGpuMatERKNS_11_InputArrayERNS_3gpu6GpuMatE'/>
<use f='opencv/modules/superres/src/input_array_utility.cpp' l='107' u='c' c='_ZN12_GLOBAL__N_17mat2gpuERKN2cv11_InputArrayERKNS0_12_OutputArrayE'/>
<use f='opencv/modules/ts/src/gpu_test.cpp' l='113' u='c' c='_ZN6cvtest7loadMatERKN2cv3MatEb'/>
<use f='opencv/modules/videostab/src/optical_flow.cpp' l='73' u='c' c='_ZN2cv9videostab29DensePyrLkOptFlowEstimatorGpu3runERKNS_11_InputArrayES4_RKNS_12_OutputArrayES7_S7_'/>
<use f='opencv/modules/videostab/src/optical_flow.cpp' l='74' u='c' c='_ZN2cv9videostab29DensePyrLkOptFlowEstimatorGpu3runERKNS_11_InputArrayES4_RKNS_12_OutputArrayES7_S7_'/>
