<dec f='opencv/modules/ocl/include/opencv2/ocl/ocl.hpp' l='1084' type='static Size cv::ocl::HOGDescriptor::numPartsWithin(Size size, Size part_size, Size stride)'/>
<use f='opencv/modules/ocl/src/hog.cpp' l='150' u='c' c='_ZN2cv3ocl13HOGDescriptorC1ENS_5Size_IiEES3_S3_S3_iddbi'/>
<use f='opencv/modules/ocl/src/hog.cpp' l='165' u='c' c='_ZNK2cv3ocl13HOGDescriptor17getDescriptorSizeEv'/>
<use f='opencv/modules/ocl/src/hog.cpp' l='193' u='c' c='_ZN2cv3ocl13HOGDescriptor14setSVMDetectorERKSt6vectorIfSaIfEE'/>
<use f='opencv/modules/ocl/src/hog.cpp' l='224' u='c' c='_ZN2cv3ocl13HOGDescriptor11init_bufferERKNS0_6oclMatENS_5Size_IiEE'/>
<use f='opencv/modules/ocl/src/hog.cpp' l='228' u='c' c='_ZN2cv3ocl13HOGDescriptor11init_bufferERKNS0_6oclMatENS_5Size_IiEE'/>
<use f='opencv/modules/ocl/src/hog.cpp' l='287' u='c' c='_ZN2cv3ocl13HOGDescriptor14getDescriptorsERKNS0_6oclMatENS_5Size_IiEERS2_i'/>
<use f='opencv/modules/ocl/src/hog.cpp' l='288' u='c' c='_ZN2cv3ocl13HOGDescriptor14getDescriptorsERKNS0_6oclMatENS_5Size_IiEERS2_i'/>
<use f='opencv/modules/ocl/src/hog.cpp' l='337' u='c' c='_ZN2cv3ocl13HOGDescriptor6detectERKNS0_6oclMatERSt6vectorINS_6Point_IiEESaIS7_EEdNS_5Size_IiEESC_'/>
<def f='opencv/modules/ocl/src/hog.cpp' l='411' ll='416' type='static cv::Size cv::ocl::HOGDescriptor::numPartsWithin(cv::Size size, cv::Size part_size, cv::Size stride)'/>
