<dec f='opencv/modules/gpu/include/opencv2/gpu/gpu.hpp' l='1335' type='static Size cv::gpu::HOGDescriptor::numPartsWithin(Size size, Size part_size, Size stride)'/>
<use f='opencv/modules/gpu/src/hog.cpp' l='134' u='c' c='_ZNK2cv3gpu13HOGDescriptor17getDescriptorSizeEv'/>
<use f='opencv/modules/gpu/src/hog.cpp' l='160' u='c' c='_ZN2cv3gpu13HOGDescriptor14setSVMDetectorERKSt6vectorIfSaIfEE'/>
<use f='opencv/modules/gpu/src/hog.cpp' l='221' u='c' c='_ZN2cv3gpu13HOGDescriptor22computeBlockHistogramsERKNS0_6GpuMatE'/>
<use f='opencv/modules/gpu/src/hog.cpp' l='227' u='c' c='_ZN2cv3gpu13HOGDescriptor22computeBlockHistogramsERKNS0_6GpuMatE'/>
<use f='opencv/modules/gpu/src/hog.cpp' l='247' u='c' c='_ZN2cv3gpu13HOGDescriptor14getDescriptorsERKNS0_6GpuMatENS_5Size_IiEERS2_i'/>
<use f='opencv/modules/gpu/src/hog.cpp' l='248' u='c' c='_ZN2cv3gpu13HOGDescriptor14getDescriptorsERKNS0_6GpuMatENS_5Size_IiEERS2_i'/>
<use f='opencv/modules/gpu/src/hog.cpp' l='284' u='c' c='_ZN2cv3gpu13HOGDescriptor17computeConfidenceERKNS0_6GpuMatERSt6vectorINS_6Point_IiEESaIS7_EEdNS_5Size_IiEESC_SA_RS5_IdSaIdEE'/>
<use f='opencv/modules/gpu/src/hog.cpp' l='378' u='c' c='_ZN2cv3gpu13HOGDescriptor6detectERKNS0_6GpuMatERSt6vectorINS_6Point_IiEESaIS7_EEdNS_5Size_IiEESC_'/>
<def f='opencv/modules/gpu/src/hog.cpp' l='458' ll='461' type='static cv::Size cv::gpu::HOGDescriptor::numPartsWithin(cv::Size size, cv::Size part_size, cv::Size stride)'/>
