<dec f='opencv/modules/objdetect/include/opencv2/objdetect/objdetect.hpp' l='313' type='void cv::LatentSvmDetector::clear()'/>
<use f='opencv/modules/objdetect/src/latentsvmdetector.cpp' l='169' u='c' c='_ZN2cv17LatentSvmDetectorD1Ev'/>
<def f='opencv/modules/objdetect/src/latentsvmdetector.cpp' l='172' ll='179' type='void cv::LatentSvmDetector::clear()'/>
<use f='opencv/modules/objdetect/src/latentsvmdetector.cpp' l='216' u='c' c='_ZN2cv17LatentSvmDetector4loadERKSt6vectorISsSaISsEES5_'/>
<use f='opencv/modules/objdetect/test/test_latentsvmdetector.cpp' l='298' u='c' c='_ZN21LatentSVMDetectorTest3runEi'/>
