<dec f='opencv/modules/gpu/include/opencv2/gpu/gpu.hpp' l='1291' type='void cv::gpu::HOGDescriptor::setSVMDetector(const vector&lt;float&gt; &amp; detector)'/>
<use f='opencv/modules/gpu/perf/perf_objdetect.cpp' l='76' u='c' c='_ZN19Image_ObjDetect_HOG12PerfTestBodyEv'/>
<def f='opencv/modules/gpu/src/hog.cpp' l='155' ll='177' type='void cv::gpu::HOGDescriptor::setSVMDetector(const vector&lt;float&gt; &amp; _detector)'/>
<use f='opencv/modules/gpu/test/test_objdetect.cpp' l='147' u='c' c='_ZN3HOG10testDetectERKN2cv3MatE'/>
<use f='opencv/modules/gpu/test/test_objdetect.cpp' l='331' u='c' c='_ZN16CalTech_HOG_Test14UnsafeTestBodyEv'/>
