<dec f='opencv/modules/objdetect/include/opencv2/objdetect/objdetect.hpp' l='561' type='void cv::HOGDescriptor::setSVMDetector(InputArray _svmdetector)'/>
<use f='opencv/modules/gpu/perf/perf_objdetect.cpp' l='87' u='c' c='_ZN19Image_ObjDetect_HOG12PerfTestBodyEv'/>
<def f='opencv/modules/objdetect/src/hog.cpp' l='86' ll='90' type='void cv::HOGDescriptor::setSVMDetector(InputArray _svmDetector)'/>
<use f='opencv/modules/objdetect/src/hog.cpp' l='2632' u='c' c='_ZN2cv13HOGDescriptor12readALTModelESs'/>
<use f='opencv/modules/objdetect/test/test_cascadeandhog.cpp' l='512' u='c' c='_ZN18CV_HOGDetectorTest16detectMultiScaleEiRKN2cv3MatERSt6vectorINS0_5Rect_IiEESaIS6_EE'/>
<use f='opencv/modules/objdetect/test/test_cascadeandhog.cpp' l='528' u='c' c='_ZN46Objdetect_HOGDetectorReadWrite_regression_Test8TestBodyEv'/>
<use f='opencv/modules/ocl/perf/perf_hog.cpp' l='82' u='c' c='_ZN18OCL_HOGFixture_HOG12PerfTestBodyEv'/>
<use f='opencv/modules/ocl/test/test_objdetect.cpp' l='98' u='c' c='_ZN23HOG_GetDescriptors_Test11OCLTestBodyEv'/>
<use f='opencv/modules/ocl/test/test_objdetect.cpp' l='145' u='c' c='_ZN15HOG_Detect_Test11OCLTestBodyEv'/>
<use f='opencv/modules/ocl/test/test_objdetect.cpp' l='150' u='c' c='_ZN15HOG_Detect_Test11OCLTestBodyEv'/>
<use f='opencv/modules/ocl/test/test_objdetect.cpp' l='155' u='c' c='_ZN15HOG_Detect_Test11OCLTestBodyEv'/>
<use f='opencv/modules/python/src2/cv2.cv.hpp' l='3785' u='c' c='_ZL21cvHOGDetectMultiScalePKvP12CvMemStorageS0_6CvSizeddiS3_S3_S3_S3_S3_ii'/>
<use f='opencv/modules/python/src2/cv2.cv.hpp' l='3788' u='c' c='_ZL21cvHOGDetectMultiScalePKvP12CvMemStorageS0_6CvSizeddiS3_S3_S3_S3_S3_ii'/>
