<dec f='opencv/modules/objdetect/include/opencv2/objdetect/objdetect.hpp' l='317' type='void cv::LatentSvmDetector::detect(const cv::Mat &amp; image, vector&lt;cv::LatentSvmDetector::ObjectDetection&gt; &amp; objectDetections, float overlapThreshold = 0.5F, int numThreads = -1)'/>
<def f='opencv/modules/objdetect/src/latentsvmdetector.cpp' l='242' ll='267' type='void cv::LatentSvmDetector::detect(const cv::Mat &amp; image, vector&lt;cv::LatentSvmDetector::ObjectDetection&gt; &amp; objectDetections, float overlapThreshold = 0.5F, int numThreads = -1)'/>
<use f='opencv/modules/objdetect/test/test_latentsvmdetector.cpp' l='248' u='c' c='_ZN21LatentSVMDetectorTest3runEi'/>
<use f='opencv/modules/objdetect/test/test_latentsvmdetector.cpp' l='249' u='c' c='_ZN21LatentSVMDetectorTest3runEi'/>
<use f='opencv/modules/objdetect/test/test_latentsvmdetector.cpp' l='250' u='c' c='_ZN21LatentSVMDetectorTest3runEi'/>
