<def f='opencv/modules/objdetect/test/test_latentsvmdetector.cpp' l='308' macro='1' type='void Objdetect_LatentSVMDetector_c_DISABLED_regression_Test::Objdetect_LatentSVMDetector_c_DISABLED_regression_Test()'/>
