<dec f='opencv/modules/objdetect/test/test_latentsvmdetector.cpp' l='309' macro='1' type='void Objdetect_LatentSVMDetector_cpp_DISABLED_regression_Test::TestBody()'/>
<inh f='opencv/modules/ts/include/opencv2/ts/ts_gtest.h' l='17899' c='_ZN7testing4Test8TestBodyEv'/>
<def f='opencv/modules/objdetect/test/test_latentsvmdetector.cpp' l='309' macro='1' type='void Objdetect_LatentSVMDetector_cpp_DISABLED_regression_Test::TestBody()'/>
