<dec f='opencv/modules/objdetect/test/test_latentsvmdetector.cpp' l='309' macro='1' type='void Objdetect_LatentSVMDetector_cpp_DISABLED_regression_Test::Objdetect_LatentSVMDetector_cpp_DISABLED_regression_Test(const Objdetect_LatentSVMDetector_cpp_DISABLED_regression_Test &amp; )'/>
