<dec f='opencv/modules/objdetect/include/opencv2/objdetect/objdetect.hpp' l='322' type='const vector&lt;string&gt; &amp; cv::LatentSvmDetector::getClassNames() const'/>
<def f='opencv/modules/objdetect/src/latentsvmdetector.cpp' l='186' ll='189' type='const vector&lt;string&gt; &amp; cv::LatentSvmDetector::getClassNames() const'/>
<use f='opencv/modules/objdetect/test/test_latentsvmdetector.cpp' l='292' u='c' c='_ZN21LatentSVMDetectorTest3runEi'/>
