<dec f='opencv/modules/gpu/include/opencv2/gpu/gpu.hpp' l='1289' type='size_t cv::gpu::HOGDescriptor::getBlockHistogramSize() const'/>
<use f='opencv/modules/gpu/src/hog.cpp' l='134' u='c' c='_ZNK2cv3gpu13HOGDescriptor17getDescriptorSizeEv'/>
<def f='opencv/modules/gpu/src/hog.cpp' l='137' ll='141' type='size_t cv::gpu::HOGDescriptor::getBlockHistogramSize() const'/>
<use f='opencv/modules/gpu/src/hog.cpp' l='159' u='c' c='_ZN2cv3gpu13HOGDescriptor14setSVMDetectorERKSt6vectorIfSaIfEE'/>
<use f='opencv/modules/gpu/src/hog.cpp' l='226' u='c' c='_ZN2cv3gpu13HOGDescriptor22computeBlockHistogramsERKNS0_6GpuMatE'/>
<use f='opencv/modules/gpu/src/hog.cpp' l='246' u='c' c='_ZN2cv3gpu13HOGDescriptor14getDescriptorsERKNS0_6GpuMatENS_5Size_IiEERS2_i'/>
