<dec f='opencv/modules/objdetect/include/opencv2/objdetect/objdetect.hpp' l='314' type='bool cv::LatentSvmDetector::empty() const'/>
<def f='opencv/modules/objdetect/src/latentsvmdetector.cpp' l='181' ll='184' type='bool cv::LatentSvmDetector::empty() const'/>
<use f='opencv/modules/objdetect/src/latentsvmdetector.cpp' l='239' u='c' c='_ZN2cv17LatentSvmDetector4loadERKSt6vectorISsSaISsEES5_'/>
<use f='opencv/modules/objdetect/test/test_latentsvmdetector.cpp' l='239' u='c' c='_ZN21LatentSVMDetectorTest3runEi'/>
<use f='opencv/modules/objdetect/test/test_latentsvmdetector.cpp' l='239' u='c' c='_ZN21LatentSVMDetectorTest3runEi'/>
<use f='opencv/modules/objdetect/test/test_latentsvmdetector.cpp' l='299' u='c' c='_ZN21LatentSVMDetectorTest3runEi'/>
