<dec f='opencv/modules/objdetect/include/opencv2/objdetect/objdetect.hpp' l='558' type='bool cv::HOGDescriptor::checkDetectorSize() const'/>
<def f='opencv/modules/objdetect/src/hog.cpp' l='78' ll='84' type='bool cv::HOGDescriptor::checkDetectorSize() const'/>
<use f='opencv/modules/objdetect/src/hog.cpp' l='89' u='c' c='_ZN2cv13HOGDescriptor14setSVMDetectorERKNS_11_InputArrayE'/>
<use f='opencv/modules/objdetect/src/hog.cpp' l='118' u='c' c='_ZN2cv13HOGDescriptor4readERNS_8FileNodeE'/>
