<dec f='opencv/modules/ocl/include/opencv2/ocl/ocl.hpp' l='1081' type='bool cv::ocl::HOGDescriptor::checkDetectorSize() const'/>
<def f='opencv/modules/ocl/src/hog.cpp' l='180' ll='186' type='bool cv::ocl::HOGDescriptor::checkDetectorSize() const'/>
<use f='opencv/modules/ocl/src/hog.cpp' l='209' u='c' c='_ZN2cv3ocl13HOGDescriptor14setSVMDetectorERKSt6vectorIfSaIfEE'/>
