<dec f='opencv/modules/ocl/include/opencv2/ocl/ocl.hpp' l='1048' type='size_t cv::ocl::HOGDescriptor::getDescriptorSize() const'/>
<def f='opencv/modules/ocl/src/hog.cpp' l='163' ll='166' type='size_t cv::ocl::HOGDescriptor::getDescriptorSize() const'/>
<use f='opencv/modules/ocl/src/hog.cpp' l='183' u='c' c='_ZNK2cv3ocl13HOGDescriptor17checkDetectorSizeEv'/>
<use f='opencv/modules/ocl/src/hog.cpp' l='206' u='c' c='_ZN2cv3ocl13HOGDescriptor14setSVMDetectorERKSt6vectorIfSaIfEE'/>
