<dec f='opencv/modules/ocl/include/opencv2/ocl/ocl.hpp' l='1049' type='size_t cv::ocl::HOGDescriptor::getBlockHistogramSize() const'/>
<use f='opencv/modules/ocl/src/hog.cpp' l='165' u='c' c='_ZNK2cv3ocl13HOGDescriptor17getDescriptorSizeEv'/>
<def f='opencv/modules/ocl/src/hog.cpp' l='168' ll='173' type='size_t cv::ocl::HOGDescriptor::getBlockHistogramSize() const'/>
<use f='opencv/modules/ocl/src/hog.cpp' l='192' u='c' c='_ZN2cv3ocl13HOGDescriptor14setSVMDetectorERKSt6vectorIfSaIfEE'/>
<use f='opencv/modules/ocl/src/hog.cpp' l='223' u='c' c='_ZN2cv3ocl13HOGDescriptor11init_bufferERKNS0_6oclMatENS_5Size_IiEE'/>
<use f='opencv/modules/ocl/src/hog.cpp' l='286' u='c' c='_ZN2cv3ocl13HOGDescriptor14getDescriptorsERKNS0_6oclMatENS_5Size_IiEERS2_i'/>
