<dec f='opencv/modules/gpu/include/opencv2/gpu/gpu.hpp' l='1288' type='size_t cv::gpu::HOGDescriptor::getDescriptorSize() const'/>
<def f='opencv/modules/gpu/src/hog.cpp' l='132' ll='135' type='size_t cv::gpu::HOGDescriptor::getDescriptorSize() const'/>
<use f='opencv/modules/gpu/src/hog.cpp' l='151' u='c' c='_ZNK2cv3gpu13HOGDescriptor17checkDetectorSizeEv'/>
<use f='opencv/modules/gpu/src/hog.cpp' l='173' u='c' c='_ZN2cv3gpu13HOGDescriptor14setSVMDetectorERKSt6vectorIfSaIfEE'/>
