<dec f='opencv/modules/objdetect/include/opencv2/objdetect/objdetect.hpp' l='323' type='size_t cv::LatentSvmDetector::getClassCount() const'/>
<def f='opencv/modules/objdetect/src/latentsvmdetector.cpp' l='191' ll='194' type='size_t cv::LatentSvmDetector::getClassCount() const'/>
<use f='opencv/modules/objdetect/test/test_latentsvmdetector.cpp' l='239' u='c' c='_ZN21LatentSVMDetectorTest3runEi'/>
<use f='opencv/modules/objdetect/test/test_latentsvmdetector.cpp' l='292' u='c' c='_ZN21LatentSVMDetectorTest3runEi'/>
