<dec f='opencv/modules/gpu/include/opencv2/gpu/gpu.hpp' l='1332' type='bool cv::gpu::HOGDescriptor::checkDetectorSize() const'/>
<def f='opencv/modules/gpu/src/hog.cpp' l='148' ll='153' type='bool cv::gpu::HOGDescriptor::checkDetectorSize() const'/>
<use f='opencv/modules/gpu/src/hog.cpp' l='176' u='c' c='_ZN2cv3gpu13HOGDescriptor14setSVMDetectorERKSt6vectorIfSaIfEE'/>
