<def f='include/c++/4.8/bits/basic_string.h' l='2555' ll='2558' type='bool std::operator!=(const basic_string&lt;_CharT, _Traits, _Alloc&gt; &amp; __lhs, const _CharT * __rhs)'/>
<use f='opencv/modules/core/src/cmdparser.cpp' l='296' u='c' c='_ZN2cv17CommandLineParser11printParamsEv'/>
<use f='opencv/modules/core/src/cmdparser.cpp' l='299' u='c' c='_ZN2cv17CommandLineParser11printParamsEv'/>
<use f='opencv/modules/core/src/cmdparser.cpp' l='301' u='c' c='_ZN2cv17CommandLineParser11printParamsEv'/>
<use f='opencv/modules/core/src/cmdparser.cpp' l='302' u='c' c='_ZN2cv17CommandLineParser11printParamsEv'/>
<use f='opencv/modules/core/src/cmdparser.cpp' l='313' u='c' c='_ZN2cv17CommandLineParser11printParamsEv'/>
<use f='opencv/modules/core/src/cmdparser.cpp' l='352' u='c' c='_ZN2cv17CommandLineParser3getERKSsb'/>
<use f='opencv/modules/core/test/test_io.cpp' l='303' u='c' c='_ZN11Core_IOTest3runEi'/>
<use f='opencv/modules/highgui/test/test_framecount.cpp' l='103' u='c' c='_ZN17CV_FramecountTest3runEi'/>
<use f='opencv/modules/objdetect/src/latentsvmdetector.cpp' l='223' u='c' c='_ZN2cv17LatentSvmDetector4loadERKSt6vectorISsSaISsEES5_'/>
<use f='opencv/modules/objdetect/test/test_latentsvmdetector.cpp' l='292' u='c' c='_ZN21LatentSVMDetectorTest3runEi'/>
<use f='opencv/modules/ts/src/ts_gtest.cpp' l='2507' u='c' c='_ZN7testing8internal9EqFailureEPKcS2_RKSsS4_b'/>
<use f='opencv/modules/ts/src/ts_gtest.cpp' l='2515' u='c' c='_ZN7testing8internal9EqFailureEPKcS2_RKSsS4_b'/>
<use f='opencv/modules/ts/src/ts_gtest.cpp' l='5589' u='c' c='_ZN7testing8internal12UnitTestImpl18ConfigureXmlOutputEv'/>
<use f='opencv/modules/ts/src/ts_gtest.cpp' l='9620' u='c' c='_ZN7testing8internal19TypedTestCasePState25VerifyRegisteredTestNamesEPKciS3_'/>
<use f='opencv/modules/video/test/test_simpleflow.cpp' l='63' u='c' c='_ZL23readOpticalFlowFromFileP8_IO_FILERN2cv3MatE'/>
