<dec f='opencv/modules/ocl/include/opencv2/ocl/ocl.hpp' l='1064' type='Size'/>
<offset>0</offset>
<use f='opencv/modules/ocl/src/hog.cpp' l='126' u='w' c='_ZN2cv3ocl13HOGDescriptorC1ENS_5Size_IiEES3_S3_S3_iddbi'/>
<use f='opencv/modules/ocl/src/hog.cpp' l='136' u='m' c='_ZN2cv3ocl13HOGDescriptorC1ENS_5Size_IiEES3_S3_S3_iddbi'/>
<use f='opencv/modules/ocl/src/hog.cpp' l='137' u='m' c='_ZN2cv3ocl13HOGDescriptorC1ENS_5Size_IiEES3_S3_S3_iddbi'/>
<use f='opencv/modules/ocl/src/hog.cpp' l='150' u='r' c='_ZN2cv3ocl13HOGDescriptorC1ENS_5Size_IiEES3_S3_S3_iddbi'/>
<use f='opencv/modules/ocl/src/hog.cpp' l='165' u='r' c='_ZNK2cv3ocl13HOGDescriptor17getDescriptorSizeEv'/>
<use f='opencv/modules/ocl/src/hog.cpp' l='193' u='r' c='_ZN2cv3ocl13HOGDescriptor14setSVMDetectorERKSt6vectorIfSaIfEE'/>
<use f='opencv/modules/ocl/src/hog.cpp' l='228' u='r' c='_ZN2cv3ocl13HOGDescriptor11init_bufferERKNS0_6oclMatENS_5Size_IiEE'/>
<use f='opencv/modules/ocl/src/hog.cpp' l='287' u='r' c='_ZN2cv3ocl13HOGDescriptor14getDescriptorsERKNS0_6oclMatENS_5Size_IiEERS2_i'/>
<use f='opencv/modules/ocl/src/hog.cpp' l='288' u='r' c='_ZN2cv3ocl13HOGDescriptor14getDescriptorsERKNS0_6oclMatENS_5Size_IiEERS2_i'/>
<use f='opencv/modules/ocl/src/hog.cpp' l='296' u='m' c='_ZN2cv3ocl13HOGDescriptor14getDescriptorsERKNS0_6oclMatENS_5Size_IiEERS2_i'/>
<use f='opencv/modules/ocl/src/hog.cpp' l='296' u='m' c='_ZN2cv3ocl13HOGDescriptor14getDescriptorsERKNS0_6oclMatENS_5Size_IiEERS2_i'/>
<use f='opencv/modules/ocl/src/hog.cpp' l='301' u='m' c='_ZN2cv3ocl13HOGDescriptor14getDescriptorsERKNS0_6oclMatENS_5Size_IiEERS2_i'/>
<use f='opencv/modules/ocl/src/hog.cpp' l='301' u='m' c='_ZN2cv3ocl13HOGDescriptor14getDescriptorsERKNS0_6oclMatENS_5Size_IiEERS2_i'/>
<use f='opencv/modules/ocl/src/hog.cpp' l='330' u='m' c='_ZN2cv3ocl13HOGDescriptor6detectERKNS0_6oclMatERSt6vectorINS_6Point_IiEESaIS7_EEdNS_5Size_IiEESC_'/>
<use f='opencv/modules/ocl/src/hog.cpp' l='330' u='m' c='_ZN2cv3ocl13HOGDescriptor6detectERKNS0_6oclMatERSt6vectorINS_6Point_IiEESaIS7_EEdNS_5Size_IiEESC_'/>
<use f='opencv/modules/ocl/src/hog.cpp' l='337' u='r' c='_ZN2cv3ocl13HOGDescriptor6detectERKNS0_6oclMatERSt6vectorINS_6Point_IiEESaIS7_EEdNS_5Size_IiEESC_'/>
<use f='opencv/modules/ocl/src/hog.cpp' l='363' u='m' c='_ZN2cv3ocl13HOGDescriptor16detectMultiScaleERKNS0_6oclMatERSt6vectorINS_5Rect_IiEESaIS7_EEdNS_5Size_IiEESC_di'/>
<use f='opencv/modules/ocl/src/hog.cpp' l='364' u='m' c='_ZN2cv3ocl13HOGDescriptor16detectMultiScaleERKNS0_6oclMatERSt6vectorINS_5Rect_IiEESaIS7_EEdNS_5Size_IiEESC_di'/>
<use f='opencv/modules/ocl/src/hog.cpp' l='395' u='m' c='_ZN2cv3ocl13HOGDescriptor16detectMultiScaleERKNS0_6oclMatERSt6vectorINS_5Rect_IiEESaIS7_EEdNS_5Size_IiEESC_di'/>
<use f='opencv/modules/ocl/src/hog.cpp' l='396' u='m' c='_ZN2cv3ocl13HOGDescriptor16detectMultiScaleERKNS0_6oclMatERSt6vectorINS_5Rect_IiEESaIS7_EEdNS_5Size_IiEESC_di'/>
<use f='opencv/modules/ocl/test/test_objdetect.cpp' l='93' u='r' c='_ZN23HOG_GetDescriptors_Test11OCLTestBodyEv'/>
<use f='opencv/modules/ocl/test/test_objdetect.cpp' l='103' u='r' c='_ZN23HOG_GetDescriptors_Test11OCLTestBodyEv'/>
<use f='opencv/modules/ocl/test/test_objdetect.cpp' l='107' u='r' c='_ZN23HOG_GetDescriptors_Test11OCLTestBodyEv'/>
