<dec f='opencv/modules/gpu/include/opencv2/gpu/gpu.hpp' l='1339' type='cv::gpu::GpuMat'/>
<offset>576</offset>
<use f='opencv/modules/gpu/src/hog.cpp' l='150' u='m' c='_ZNK2cv3gpu13HOGDescriptor17checkDetectorSizeEv'/>
<use f='opencv/modules/gpu/src/hog.cpp' l='150' u='m' c='_ZNK2cv3gpu13HOGDescriptor17checkDetectorSizeEv'/>
<use f='opencv/modules/gpu/src/hog.cpp' l='171' u='m' c='_ZN2cv3gpu13HOGDescriptor14setSVMDetectorERKSt6vectorIfSaIfEE'/>
<use f='opencv/modules/gpu/src/hog.cpp' l='273' u='m' c='_ZN2cv3gpu13HOGDescriptor17computeConfidenceERKNS0_6GpuMatERSt6vectorINS_6Point_IiEESaIS7_EEdNS_5Size_IiEESC_SA_RS5_IdSaIdEE'/>
<use f='opencv/modules/gpu/src/hog.cpp' l='289' u='m' c='_ZN2cv3gpu13HOGDescriptor17computeConfidenceERKNS0_6GpuMatERSt6vectorINS_6Point_IiEESaIS7_EEdNS_5Size_IiEESC_SA_RS5_IdSaIdEE'/>
<use f='opencv/modules/gpu/src/hog.cpp' l='368' u='m' c='_ZN2cv3gpu13HOGDescriptor6detectERKNS0_6GpuMatERSt6vectorINS_6Point_IiEESaIS7_EEdNS_5Size_IiEESC_'/>
<use f='opencv/modules/gpu/src/hog.cpp' l='384' u='m' c='_ZN2cv3gpu13HOGDescriptor6detectERKNS0_6GpuMatERSt6vectorINS_6Point_IiEESaIS7_EEdNS_5Size_IiEESC_'/>
