<dec f='opencv/modules/core/include/opencv2/core/core.hpp' l='4121' type='1'/>
<doc f='opencv/modules/core/include/opencv2/core/core.hpp' l='4121'>//! write mode</doc>
<use f='opencv/apps/traincascade/cascadeclassifier.cpp' l='244' u='r' c='_ZN19CvCascadeClassifier5trainESsSsSsiiiiiRK15CvCascadeParamsRK15CvFeatureParamsRK20CvCascadeBoostParamsbd'/>
<use f='opencv/apps/traincascade/cascadeclassifier.cpp' l='259' u='r' c='_ZN19CvCascadeClassifier5trainESsSsSsiiiiiRK15CvCascadeParamsRK15CvFeatureParamsRK20CvCascadeBoostParamsbd'/>
<use f='opencv/apps/traincascade/cascadeclassifier.cpp' l='435' u='r' c='_ZN19CvCascadeClassifier4saveESsb'/>
<use f='opencv/modules/calib3d/test/test_stereomatching.cpp' l='432' u='r' c='_ZN21CV_StereoMatchingTest3runEi'/>
<use f='opencv/modules/contrib/src/facerec.cpp' l='388' u='r' c='_ZNK2cv14FaceRecognizer4saveERKSs'/>
<use f='opencv/modules/contrib/src/lda.cpp' l='945' u='r' c='_ZNK2cv3LDA4saveERKSs'/>
<use f='opencv/modules/contrib/src/retina.cpp' l='237' u='r' c='_ZNK2cv6Retina5writeESs'/>
<use f='opencv/modules/core/test/test_io.cpp' l='108' u='r' c='_ZN11Core_IOTest3runEi'/>
<use f='opencv/modules/core/test/test_io.cpp' l='417' u='r' c='_ZN13CV_MiscIOTest3runEi'/>
<use f='opencv/modules/core/test/test_io.cpp' l='519' u='r' c='_ZN33Core_InputOutput_FileStorage_Test8TestBodyEv'/>
<use f='opencv/modules/core/test/test_io.cpp' l='528' u='r' c='_ZN36Core_InputOutput_FileStorageKey_Test8TestBodyEv'/>
<use f='opencv/modules/features2d/test/test_descriptors_regression.cpp' l='250' u='r' c='_ZN26CV_DescriptorExtractorTest14regressionTestEv'/>
<use f='opencv/modules/features2d/test/test_detectors_regression.cpp' l='213' u='r' c='_ZN22CV_FeatureDetectorTest14regressionTestEv'/>
<use f='opencv/modules/features2d/test/test_fast.cpp' l='99' u='r' c='_ZN11CV_FastTest3runEi'/>
<use f='opencv/modules/imgproc/test/test_houghLines.cpp' l='117' u='r' c='_ZN17CV_HoughLinesTest8run_testEi'/>
<use f='opencv/modules/legacy/src/oneway.cpp' l='1860' u='r' c='_ZN2cv20OneWayDescriptorBase11GeneratePCAEPKcS2_i'/>
<use f='opencv/modules/legacy/test/test_em.cpp' l='403' u='r' c='_ZN20CV_CvEMTest_SaveLoad3runEi'/>
<use f='opencv/modules/legacy/test/test_stereomatching.cpp' l='432' u='r' c='_ZN21CV_StereoMatchingTest3runEi'/>
<use f='opencv/modules/ml/test/test_emknearestkmeans.cpp' l='532' u='r' c='_ZN18CV_EMTest_SaveLoad3runEi'/>
<use f='opencv/modules/nonfree/test/test_features2d.cpp' l='230' u='r' c='_ZN22CV_FeatureDetectorTest14regressionTestEv'/>
<use f='opencv/modules/nonfree/test/test_features2d.cpp' l='460' u='r' c='_ZN26CV_DescriptorExtractorTest14regressionTestEv'/>
<use f='opencv/modules/objdetect/src/hog.cpp' l='154' u='r' c='_ZNK2cv13HOGDescriptor4saveERKSsS2_'/>
<use f='opencv/modules/objdetect/src/linemod.cpp' l='1832' u='r' c='_ZNK2cv7linemod8Detector12writeClassesERKSs'/>
<use f='opencv/modules/objdetect/test/test_cascadeandhog.cpp' l='177' u='r' c='_ZN15CV_DetectorTest3runEi'/>
<use f='opencv/modules/objdetect/test/test_cascadeandhog.cpp' l='531' u='r' c='_ZN46Objdetect_HOGDetectorReadWrite_regression_Test8TestBodyEv'/>
<use f='opencv/modules/objdetect/test/test_latentsvmdetector.cpp' l='280' u='r' c='_ZN21LatentSVMDetectorTest3runEi'/>
<use f='opencv/modules/ts/src/ts_perf.cpp' l='226' u='r' c='_ZN4perf10Regression5writeEv'/>
<use f='opencv/modules/ts/src/ts_perf.cpp' l='233' u='r' c='_ZN4perf10Regression5writeEv'/>
