<dec f='opencv/modules/ocl/include/opencv2/ocl/ocl.hpp' l='1088' type='cv::ocl::oclMat'/>
<offset>576</offset>
<use f='opencv/modules/ocl/src/hog.cpp' l='182' u='m' c='_ZNK2cv3ocl13HOGDescriptor17checkDetectorSizeEv'/>
<use f='opencv/modules/ocl/src/hog.cpp' l='182' u='m' c='_ZNK2cv3ocl13HOGDescriptor17checkDetectorSizeEv'/>
<use f='opencv/modules/ocl/src/hog.cpp' l='204' u='m' c='_ZN2cv3ocl13HOGDescriptor14setSVMDetectorERKSt6vectorIfSaIfEE'/>
<use f='opencv/modules/ocl/src/hog.cpp' l='318' u='m' c='_ZN2cv3ocl13HOGDescriptor6detectERKNS0_6oclMatERSt6vectorINS_6Point_IiEESaIS7_EEdNS_5Size_IiEESC_'/>
<use f='opencv/modules/ocl/src/hog.cpp' l='332' u='r' c='_ZN2cv3ocl13HOGDescriptor6detectERKNS0_6oclMatERSt6vectorINS_6Point_IiEESaIS7_EEdNS_5Size_IiEESC_'/>
