<dec f='opencv/modules/ocl/include/opencv2/ocl/ocl.hpp' l='1066' type='Size'/>
<offset>128</offset>
<use f='opencv/modules/ocl/src/hog.cpp' l='128' u='w' c='_ZN2cv3ocl13HOGDescriptorC1ENS_5Size_IiEES3_S3_S3_iddbi'/>
<use f='opencv/modules/ocl/src/hog.cpp' l='136' u='m' c='_ZN2cv3ocl13HOGDescriptorC1ENS_5Size_IiEES3_S3_S3_iddbi'/>
<use f='opencv/modules/ocl/src/hog.cpp' l='137' u='m' c='_ZN2cv3ocl13HOGDescriptorC1ENS_5Size_IiEES3_S3_S3_iddbi'/>
<use f='opencv/modules/ocl/src/hog.cpp' l='142' u='r' c='_ZN2cv3ocl13HOGDescriptorC1ENS_5Size_IiEES3_S3_S3_iddbi'/>
<use f='opencv/modules/ocl/src/hog.cpp' l='150' u='r' c='_ZN2cv3ocl13HOGDescriptorC1ENS_5Size_IiEES3_S3_S3_iddbi'/>
<use f='opencv/modules/ocl/src/hog.cpp' l='151' u='m' c='_ZN2cv3ocl13HOGDescriptorC1ENS_5Size_IiEES3_S3_S3_iddbi'/>
<use f='opencv/modules/ocl/src/hog.cpp' l='151' u='m' c='_ZN2cv3ocl13HOGDescriptorC1ENS_5Size_IiEES3_S3_S3_iddbi'/>
<use f='opencv/modules/ocl/src/hog.cpp' l='165' u='r' c='_ZNK2cv3ocl13HOGDescriptor17getDescriptorSizeEv'/>
<use f='opencv/modules/ocl/src/hog.cpp' l='193' u='r' c='_ZN2cv3ocl13HOGDescriptor14setSVMDetectorERKSt6vectorIfSaIfEE'/>
<use f='opencv/modules/ocl/src/hog.cpp' l='224' u='r' c='_ZN2cv3ocl13HOGDescriptor11init_bufferERKNS0_6oclMatENS_5Size_IiEE'/>
<use f='opencv/modules/ocl/src/hog.cpp' l='268' u='m' c='_ZN2cv3ocl13HOGDescriptor22computeBlockHistogramsERKNS0_6oclMatE'/>
<use f='opencv/modules/ocl/src/hog.cpp' l='268' u='m' c='_ZN2cv3ocl13HOGDescriptor22computeBlockHistogramsERKNS0_6oclMatE'/>
<use f='opencv/modules/ocl/src/hog.cpp' l='271' u='m' c='_ZN2cv3ocl13HOGDescriptor22computeBlockHistogramsERKNS0_6oclMatE'/>
<use f='opencv/modules/ocl/src/hog.cpp' l='271' u='m' c='_ZN2cv3ocl13HOGDescriptor22computeBlockHistogramsERKNS0_6oclMatE'/>
<use f='opencv/modules/ocl/src/hog.cpp' l='279' u='m' c='_ZN2cv3ocl13HOGDescriptor14getDescriptorsERKNS0_6oclMatENS_5Size_IiEERS2_i'/>
<use f='opencv/modules/ocl/src/hog.cpp' l='280' u='m' c='_ZN2cv3ocl13HOGDescriptor14getDescriptorsERKNS0_6oclMatENS_5Size_IiEERS2_i'/>
<use f='opencv/modules/ocl/src/hog.cpp' l='287' u='r' c='_ZN2cv3ocl13HOGDescriptor14getDescriptorsERKNS0_6oclMatENS_5Size_IiEERS2_i'/>
<use f='opencv/modules/ocl/src/hog.cpp' l='297' u='m' c='_ZN2cv3ocl13HOGDescriptor14getDescriptorsERKNS0_6oclMatENS_5Size_IiEERS2_i'/>
<use f='opencv/modules/ocl/src/hog.cpp' l='297' u='m' c='_ZN2cv3ocl13HOGDescriptor14getDescriptorsERKNS0_6oclMatENS_5Size_IiEERS2_i'/>
<use f='opencv/modules/ocl/src/hog.cpp' l='302' u='m' c='_ZN2cv3ocl13HOGDescriptor14getDescriptorsERKNS0_6oclMatENS_5Size_IiEERS2_i'/>
<use f='opencv/modules/ocl/src/hog.cpp' l='302' u='m' c='_ZN2cv3ocl13HOGDescriptor14getDescriptorsERKNS0_6oclMatENS_5Size_IiEERS2_i'/>
<use f='opencv/modules/ocl/src/hog.cpp' l='322' u='r' c='_ZN2cv3ocl13HOGDescriptor6detectERKNS0_6oclMatERSt6vectorINS_6Point_IiEESaIS7_EEdNS_5Size_IiEESC_'/>
<use f='opencv/modules/ocl/src/hog.cpp' l='324' u='m' c='_ZN2cv3ocl13HOGDescriptor6detectERKNS0_6oclMatERSt6vectorINS_6Point_IiEESaIS7_EEdNS_5Size_IiEESC_'/>
<use f='opencv/modules/ocl/src/hog.cpp' l='325' u='m' c='_ZN2cv3ocl13HOGDescriptor6detectERKNS0_6oclMatERSt6vectorINS_6Point_IiEESaIS7_EEdNS_5Size_IiEESC_'/>
<use f='opencv/modules/ocl/src/hog.cpp' l='330' u='m' c='_ZN2cv3ocl13HOGDescriptor6detectERKNS0_6oclMatERSt6vectorINS_6Point_IiEESaIS7_EEdNS_5Size_IiEESC_'/>
<use f='opencv/modules/ocl/src/hog.cpp' l='331' u='m' c='_ZN2cv3ocl13HOGDescriptor6detectERKNS0_6oclMatERSt6vectorINS_6Point_IiEESaIS7_EEdNS_5Size_IiEESC_'/>
<use f='opencv/modules/ocl/src/hog.cpp' l='375' u='r' c='_ZN2cv3ocl13HOGDescriptor16detectMultiScaleERKNS0_6oclMatERSt6vectorINS_5Rect_IiEESaIS7_EEdNS_5Size_IiEESC_di'/>
<use f='opencv/modules/ocl/src/hog.cpp' l='377' u='m' c='_ZN2cv3ocl13HOGDescriptor16detectMultiScaleERKNS0_6oclMatERSt6vectorINS_5Rect_IiEESaIS7_EEdNS_5Size_IiEESC_di'/>
<use f='opencv/modules/ocl/src/hog.cpp' l='378' u='m' c='_ZN2cv3ocl13HOGDescriptor16detectMultiScaleERKNS0_6oclMatERSt6vectorINS_5Rect_IiEESaIS7_EEdNS_5Size_IiEESC_di'/>
