<dec f='opencv/modules/objdetect/include/opencv2/objdetect/objdetect.hpp' l='612' type='vector&lt;float&gt;'/>
<offset>640</offset>
<use f='opencv/modules/objdetect/src/hog.cpp' l='80' u='m' c='_ZNK2cv13HOGDescriptor17checkDetectorSizeEv'/>
<use f='opencv/modules/objdetect/src/hog.cpp' l='88' u='a' c='_ZN2cv13HOGDescriptor14setSVMDetectorERKNS_11_InputArrayE'/>
<use f='opencv/modules/objdetect/src/hog.cpp' l='117' u='a' c='_ZN2cv13HOGDescriptor4readERNS_8FileNodeE'/>
<use f='opencv/modules/objdetect/src/hog.cpp' l='140' u='m' c='_ZNK2cv13HOGDescriptor5writeERNS_11FileStorageERKSs'/>
<use f='opencv/modules/objdetect/src/hog.cpp' l='141' u='r' c='_ZNK2cv13HOGDescriptor5writeERNS_11FileStorageERKSs'/>
<use f='opencv/modules/objdetect/src/hog.cpp' l='170' u='w' c='_ZNK2cv13HOGDescriptor6copyToERS0_'/>
<use f='opencv/modules/objdetect/src/hog.cpp' l='170' u='r' c='_ZNK2cv13HOGDescriptor6copyToERS0_'/>
<use f='opencv/modules/objdetect/src/hog.cpp' l='862' u='m' c='_ZNK2cv13HOGDescriptor6detectERKNS_3MatERSt6vectorINS_6Point_IiEESaIS6_EERS4_IdSaIdEEdNS_5Size_IiEESE_RKS8_'/>
<use f='opencv/modules/objdetect/src/hog.cpp' l='885' u='m' c='_ZNK2cv13HOGDescriptor6detectERKNS_3MatERSt6vectorINS_6Point_IiEESaIS6_EERS4_IdSaIdEEdNS_5Size_IiEESE_RKS8_'/>
<use f='opencv/modules/objdetect/src/hog.cpp' l='885' u='m' c='_ZNK2cv13HOGDescriptor6detectERKNS_3MatERSt6vectorINS_6Point_IiEESaIS6_EERS4_IdSaIdEEdNS_5Size_IiEESE_RKS8_'/>
<use f='opencv/modules/objdetect/src/hog.cpp' l='904' u='m' c='_ZNK2cv13HOGDescriptor6detectERKNS_3MatERSt6vectorINS_6Point_IiEESaIS6_EERS4_IdSaIdEEdNS_5Size_IiEESE_RKS8_'/>
<use f='opencv/modules/objdetect/src/hog.cpp' l='2464' u='m' c='_ZNK2cv13HOGDescriptor9detectROIERKNS_3MatERKSt6vectorINS_6Point_IiEESaIS6_EERS8_RS4_IdSaIdEEdNS_5Size_IiEESG_'/>
<use f='opencv/modules/objdetect/src/hog.cpp' l='2492' u='m' c='_ZNK2cv13HOGDescriptor9detectROIERKNS_3MatERKSt6vectorINS_6Point_IiEESaIS6_EERS8_RS4_IdSaIdEEdNS_5Size_IiEESG_'/>
<use f='opencv/modules/objdetect/src/hog.cpp' l='2492' u='m' c='_ZNK2cv13HOGDescriptor9detectROIERKNS_3MatERKSt6vectorINS_6Point_IiEESaIS6_EERS8_RS4_IdSaIdEEdNS_5Size_IiEESG_'/>
<use f='opencv/modules/objdetect/src/hog.cpp' l='2508' u='m' c='_ZNK2cv13HOGDescriptor9detectROIERKNS_3MatERKSt6vectorINS_6Point_IiEESaIS6_EERS8_RS4_IdSaIdEEdNS_5Size_IiEESG_'/>
