<def f='opencv/modules/ocl/include/opencv2/ocl/ocl.hpp' l='1037' ll='1103'/>
<size>736</size>
<doc f='opencv/modules/ocl/include/opencv2/ocl/ocl.hpp' l='1036'>//////////////// HOG (Histogram-of-Oriented-Gradients) Descriptor and Object Detector //////////////</doc>
<fun r='_ZN2cv3ocl13HOGDescriptorC1ENS_5Size_IiEES3_S3_S3_iddbi'/>
<fun r='_ZNK2cv3ocl13HOGDescriptor17getDescriptorSizeEv'/>
<fun r='_ZNK2cv3ocl13HOGDescriptor21getBlockHistogramSizeEv'/>
<fun r='_ZN2cv3ocl13HOGDescriptor14setSVMDetectorERKSt6vectorIfSaIfEE'/>
<fun r='_ZN2cv3ocl13HOGDescriptor24getDefaultPeopleDetectorEv'/>
<fun r='_ZN2cv3ocl13HOGDescriptor22getPeopleDetector48x96Ev'/>
<fun r='_ZN2cv3ocl13HOGDescriptor23getPeopleDetector64x128Ev'/>
<fun r='_ZN2cv3ocl13HOGDescriptor6detectERKNS0_6oclMatERSt6vectorINS_6Point_IiEESaIS7_EEdNS_5Size_IiEESC_'/>
<fun r='_ZN2cv3ocl13HOGDescriptor16detectMultiScaleERKNS0_6oclMatERSt6vectorINS_5Rect_IiEESaIS7_EEdNS_5Size_IiEESC_di'/>
<fun r='_ZN2cv3ocl13HOGDescriptor14getDescriptorsERKNS0_6oclMatENS_5Size_IiEERS2_i'/>
<mbr r='cv::ocl::HOGDescriptor::win_size' o='0' t='Size'/>
<mbr r='cv::ocl::HOGDescriptor::block_size' o='64' t='Size'/>
<mbr r='cv::ocl::HOGDescriptor::block_stride' o='128' t='Size'/>
<mbr r='cv::ocl::HOGDescriptor::cell_size' o='192' t='Size'/>
<mbr r='cv::ocl::HOGDescriptor::nbins' o='256' t='int'/>
<mbr r='cv::ocl::HOGDescriptor::win_sigma' o='320' t='double'/>
<mbr r='cv::ocl::HOGDescriptor::threshold_L2hys' o='384' t='double'/>
<mbr r='cv::ocl::HOGDescriptor::gamma_correction' o='448' t='bool'/>
<mbr r='cv::ocl::HOGDescriptor::nlevels' o='480' t='int'/>
<fun r='_ZN2cv3ocl13HOGDescriptor11init_bufferERKNS0_6oclMatENS_5Size_IiEE'/>
<fun r='_ZN2cv3ocl13HOGDescriptor22computeBlockHistogramsERKNS0_6oclMatE'/>
<fun r='_ZN2cv3ocl13HOGDescriptor15computeGradientERKNS0_6oclMatERS2_S5_'/>
<fun r='_ZNK2cv3ocl13HOGDescriptor11getWinSigmaEv'/>
<fun r='_ZNK2cv3ocl13HOGDescriptor17checkDetectorSizeEv'/>
<fun r='_ZN2cv3ocl13HOGDescriptor14numPartsWithinEiii'/>
<fun r='_ZN2cv3ocl13HOGDescriptor14numPartsWithinENS_5Size_IiEES3_S3_'/>
<mbr r='cv::ocl::HOGDescriptor::free_coef' o='512' t='float'/>
<mbr r='cv::ocl::HOGDescriptor::detector' o='576' t='cv::ocl::oclMat'/>
<mbr r='cv::ocl::HOGDescriptor::labels' o='1216' t='cv::ocl::oclMat'/>
<mbr r='cv::ocl::HOGDescriptor::labels_host' o='1856' t='cv::Mat'/>
<mbr r='cv::ocl::HOGDescriptor::block_hists' o='2624' t='cv::ocl::oclMat'/>
<mbr r='cv::ocl::HOGDescriptor::grad' o='3264' t='cv::ocl::oclMat'/>
<mbr r='cv::ocl::HOGDescriptor::qangle' o='3904' t='cv::ocl::oclMat'/>
<mbr r='cv::ocl::HOGDescriptor::image_scale' o='4544' t='cv::ocl::oclMat'/>
<mbr r='cv::ocl::HOGDescriptor::effect_size' o='5184' t='Size'/>
<mbr r='cv::ocl::HOGDescriptor::gauss_w_lut' o='5248' t='cv::ocl::oclMat'/>
