<dec f='opencv/modules/gpu/include/opencv2/gpu/gpu.hpp' l='1319' type='Size'/>
<offset>128</offset>
<use f='opencv/modules/gpu/src/hog.cpp' l='111' u='w' c='_ZN2cv3gpu13HOGDescriptorC1ENS_5Size_IiEES3_S3_S3_iddbi'/>
<use f='opencv/modules/gpu/src/hog.cpp' l='119' u='m' c='_ZN2cv3gpu13HOGDescriptorC1ENS_5Size_IiEES3_S3_S3_iddbi'/>
<use f='opencv/modules/gpu/src/hog.cpp' l='120' u='m' c='_ZN2cv3gpu13HOGDescriptorC1ENS_5Size_IiEES3_S3_S3_iddbi'/>
<use f='opencv/modules/gpu/src/hog.cpp' l='124' u='r' c='_ZN2cv3gpu13HOGDescriptorC1ENS_5Size_IiEES3_S3_S3_iddbi'/>
<use f='opencv/modules/gpu/src/hog.cpp' l='134' u='r' c='_ZNK2cv3gpu13HOGDescriptor17getDescriptorSizeEv'/>
<use f='opencv/modules/gpu/src/hog.cpp' l='160' u='r' c='_ZN2cv3gpu13HOGDescriptor14setSVMDetectorERKSt6vectorIfSaIfEE'/>
<use f='opencv/modules/gpu/src/hog.cpp' l='221' u='r' c='_ZN2cv3gpu13HOGDescriptor22computeBlockHistogramsERKNS0_6GpuMatE'/>
<use f='opencv/modules/gpu/src/hog.cpp' l='222' u='m' c='_ZN2cv3gpu13HOGDescriptor22computeBlockHistogramsERKNS0_6GpuMatE'/>
<use f='opencv/modules/gpu/src/hog.cpp' l='222' u='m' c='_ZN2cv3gpu13HOGDescriptor22computeBlockHistogramsERKNS0_6GpuMatE'/>
<use f='opencv/modules/gpu/src/hog.cpp' l='227' u='r' c='_ZN2cv3gpu13HOGDescriptor22computeBlockHistogramsERKNS0_6GpuMatE'/>
<use f='opencv/modules/gpu/src/hog.cpp' l='232' u='m' c='_ZN2cv3gpu13HOGDescriptor22computeBlockHistogramsERKNS0_6GpuMatE'/>
<use f='opencv/modules/gpu/src/hog.cpp' l='232' u='m' c='_ZN2cv3gpu13HOGDescriptor22computeBlockHistogramsERKNS0_6GpuMatE'/>
<use f='opencv/modules/gpu/src/hog.cpp' l='235' u='m' c='_ZN2cv3gpu13HOGDescriptor22computeBlockHistogramsERKNS0_6GpuMatE'/>
<use f='opencv/modules/gpu/src/hog.cpp' l='235' u='m' c='_ZN2cv3gpu13HOGDescriptor22computeBlockHistogramsERKNS0_6GpuMatE'/>
<use f='opencv/modules/gpu/src/hog.cpp' l='242' u='m' c='_ZN2cv3gpu13HOGDescriptor14getDescriptorsERKNS0_6GpuMatENS_5Size_IiEERS2_i'/>
<use f='opencv/modules/gpu/src/hog.cpp' l='242' u='m' c='_ZN2cv3gpu13HOGDescriptor14getDescriptorsERKNS0_6GpuMatENS_5Size_IiEERS2_i'/>
<use f='opencv/modules/gpu/src/hog.cpp' l='247' u='r' c='_ZN2cv3gpu13HOGDescriptor14getDescriptorsERKNS0_6GpuMatENS_5Size_IiEERS2_i'/>
<use f='opencv/modules/gpu/src/hog.cpp' l='255' u='m' c='_ZN2cv3gpu13HOGDescriptor14getDescriptorsERKNS0_6GpuMatENS_5Size_IiEERS2_i'/>
<use f='opencv/modules/gpu/src/hog.cpp' l='255' u='m' c='_ZN2cv3gpu13HOGDescriptor14getDescriptorsERKNS0_6GpuMatENS_5Size_IiEERS2_i'/>
<use f='opencv/modules/gpu/src/hog.cpp' l='259' u='m' c='_ZN2cv3gpu13HOGDescriptor14getDescriptorsERKNS0_6GpuMatENS_5Size_IiEERS2_i'/>
<use f='opencv/modules/gpu/src/hog.cpp' l='259' u='m' c='_ZN2cv3gpu13HOGDescriptor14getDescriptorsERKNS0_6GpuMatENS_5Size_IiEERS2_i'/>
<use f='opencv/modules/gpu/src/hog.cpp' l='279' u='r' c='_ZN2cv3gpu13HOGDescriptor17computeConfidenceERKNS0_6GpuMatERSt6vectorINS_6Point_IiEESaIS7_EEdNS_5Size_IiEESC_SA_RS5_IdSaIdEE'/>
<use f='opencv/modules/gpu/src/hog.cpp' l='281' u='m' c='_ZN2cv3gpu13HOGDescriptor17computeConfidenceERKNS0_6GpuMatERSt6vectorINS_6Point_IiEESaIS7_EEdNS_5Size_IiEESC_SA_RS5_IdSaIdEE'/>
<use f='opencv/modules/gpu/src/hog.cpp' l='282' u='m' c='_ZN2cv3gpu13HOGDescriptor17computeConfidenceERKNS0_6GpuMatERSt6vectorINS_6Point_IiEESaIS7_EEdNS_5Size_IiEESC_SA_RS5_IdSaIdEE'/>
<use f='opencv/modules/gpu/src/hog.cpp' l='287' u='m' c='_ZN2cv3gpu13HOGDescriptor17computeConfidenceERKNS0_6GpuMatERSt6vectorINS_6Point_IiEESaIS7_EEdNS_5Size_IiEESC_SA_RS5_IdSaIdEE'/>
<use f='opencv/modules/gpu/src/hog.cpp' l='287' u='m' c='_ZN2cv3gpu13HOGDescriptor17computeConfidenceERKNS0_6GpuMatERSt6vectorINS_6Point_IiEESaIS7_EEdNS_5Size_IiEESC_SA_RS5_IdSaIdEE'/>
<use f='opencv/modules/gpu/src/hog.cpp' l='374' u='r' c='_ZN2cv3gpu13HOGDescriptor6detectERKNS0_6GpuMatERSt6vectorINS_6Point_IiEESaIS7_EEdNS_5Size_IiEESC_'/>
<use f='opencv/modules/gpu/src/hog.cpp' l='376' u='m' c='_ZN2cv3gpu13HOGDescriptor6detectERKNS0_6GpuMatERSt6vectorINS_6Point_IiEESaIS7_EEdNS_5Size_IiEESC_'/>
<use f='opencv/modules/gpu/src/hog.cpp' l='376' u='m' c='_ZN2cv3gpu13HOGDescriptor6detectERKNS0_6GpuMatERSt6vectorINS_6Point_IiEESaIS7_EEdNS_5Size_IiEESC_'/>
<use f='opencv/modules/gpu/src/hog.cpp' l='382' u='m' c='_ZN2cv3gpu13HOGDescriptor6detectERKNS0_6GpuMatERSt6vectorINS_6Point_IiEESaIS7_EEdNS_5Size_IiEESC_'/>
<use f='opencv/modules/gpu/src/hog.cpp' l='382' u='m' c='_ZN2cv3gpu13HOGDescriptor6detectERKNS0_6GpuMatERSt6vectorINS_6Point_IiEESaIS7_EEdNS_5Size_IiEESC_'/>
