<dec f='opencv/modules/gpu/include/opencv2/gpu/gpu.hpp' l='1318' type='Size'/>
<offset>64</offset>
<use f='opencv/modules/gpu/src/hog.cpp' l='110' u='w' c='_ZN2cv3gpu13HOGDescriptorC1ENS_5Size_IiEES3_S3_S3_iddbi'/>
<use f='opencv/modules/gpu/src/hog.cpp' l='119' u='m' c='_ZN2cv3gpu13HOGDescriptorC1ENS_5Size_IiEES3_S3_S3_iddbi'/>
<use f='opencv/modules/gpu/src/hog.cpp' l='120' u='m' c='_ZN2cv3gpu13HOGDescriptorC1ENS_5Size_IiEES3_S3_S3_iddbi'/>
<use f='opencv/modules/gpu/src/hog.cpp' l='122' u='m' c='_ZN2cv3gpu13HOGDescriptorC1ENS_5Size_IiEES3_S3_S3_iddbi'/>
<use f='opencv/modules/gpu/src/hog.cpp' l='122' u='m' c='_ZN2cv3gpu13HOGDescriptorC1ENS_5Size_IiEES3_S3_S3_iddbi'/>
<use f='opencv/modules/gpu/src/hog.cpp' l='128' u='m' c='_ZN2cv3gpu13HOGDescriptorC1ENS_5Size_IiEES3_S3_S3_iddbi'/>
<use f='opencv/modules/gpu/src/hog.cpp' l='128' u='m' c='_ZN2cv3gpu13HOGDescriptorC1ENS_5Size_IiEES3_S3_S3_iddbi'/>
<use f='opencv/modules/gpu/src/hog.cpp' l='134' u='r' c='_ZNK2cv3gpu13HOGDescriptor17getDescriptorSizeEv'/>
<use f='opencv/modules/gpu/src/hog.cpp' l='139' u='m' c='_ZNK2cv3gpu13HOGDescriptor21getBlockHistogramSizeEv'/>
<use f='opencv/modules/gpu/src/hog.cpp' l='139' u='m' c='_ZNK2cv3gpu13HOGDescriptor21getBlockHistogramSizeEv'/>
<use f='opencv/modules/gpu/src/hog.cpp' l='145' u='m' c='_ZNK2cv3gpu13HOGDescriptor11getWinSigmaEv'/>
<use f='opencv/modules/gpu/src/hog.cpp' l='145' u='m' c='_ZNK2cv3gpu13HOGDescriptor11getWinSigmaEv'/>
<use f='opencv/modules/gpu/src/hog.cpp' l='160' u='r' c='_ZN2cv3gpu13HOGDescriptor14setSVMDetectorERKSt6vectorIfSaIfEE'/>
<use f='opencv/modules/gpu/src/hog.cpp' l='221' u='r' c='_ZN2cv3gpu13HOGDescriptor22computeBlockHistogramsERKNS0_6GpuMatE'/>
<use f='opencv/modules/gpu/src/hog.cpp' l='227' u='r' c='_ZN2cv3gpu13HOGDescriptor22computeBlockHistogramsERKNS0_6GpuMatE'/>
<use f='opencv/modules/gpu/src/hog.cpp' l='247' u='r' c='_ZN2cv3gpu13HOGDescriptor14getDescriptorsERKNS0_6GpuMatENS_5Size_IiEERS2_i'/>
