<dec f='opencv/modules/ocl/include/opencv2/ocl/ocl.hpp' l='1065' type='Size'/>
<offset>64</offset>
<use f='opencv/modules/ocl/src/hog.cpp' l='127' u='w' c='_ZN2cv3ocl13HOGDescriptorC1ENS_5Size_IiEES3_S3_S3_iddbi'/>
<use f='opencv/modules/ocl/src/hog.cpp' l='136' u='m' c='_ZN2cv3ocl13HOGDescriptorC1ENS_5Size_IiEES3_S3_S3_iddbi'/>
<use f='opencv/modules/ocl/src/hog.cpp' l='137' u='m' c='_ZN2cv3ocl13HOGDescriptorC1ENS_5Size_IiEES3_S3_S3_iddbi'/>
<use f='opencv/modules/ocl/src/hog.cpp' l='139' u='m' c='_ZN2cv3ocl13HOGDescriptorC1ENS_5Size_IiEES3_S3_S3_iddbi'/>
<use f='opencv/modules/ocl/src/hog.cpp' l='140' u='m' c='_ZN2cv3ocl13HOGDescriptorC1ENS_5Size_IiEES3_S3_S3_iddbi'/>
<use f='opencv/modules/ocl/src/hog.cpp' l='146' u='m' c='_ZN2cv3ocl13HOGDescriptorC1ENS_5Size_IiEES3_S3_S3_iddbi'/>
<use f='opencv/modules/ocl/src/hog.cpp' l='147' u='m' c='_ZN2cv3ocl13HOGDescriptorC1ENS_5Size_IiEES3_S3_S3_iddbi'/>
<use f='opencv/modules/ocl/src/hog.cpp' l='150' u='r' c='_ZN2cv3ocl13HOGDescriptorC1ENS_5Size_IiEES3_S3_S3_iddbi'/>
<use f='opencv/modules/ocl/src/hog.cpp' l='165' u='r' c='_ZNK2cv3ocl13HOGDescriptor17getDescriptorSizeEv'/>
<use f='opencv/modules/ocl/src/hog.cpp' l='170' u='m' c='_ZNK2cv3ocl13HOGDescriptor21getBlockHistogramSizeEv'/>
<use f='opencv/modules/ocl/src/hog.cpp' l='171' u='m' c='_ZNK2cv3ocl13HOGDescriptor21getBlockHistogramSizeEv'/>
<use f='opencv/modules/ocl/src/hog.cpp' l='177' u='m' c='_ZNK2cv3ocl13HOGDescriptor11getWinSigmaEv'/>
<use f='opencv/modules/ocl/src/hog.cpp' l='177' u='m' c='_ZNK2cv3ocl13HOGDescriptor11getWinSigmaEv'/>
<use f='opencv/modules/ocl/src/hog.cpp' l='193' u='r' c='_ZN2cv3ocl13HOGDescriptor14setSVMDetectorERKSt6vectorIfSaIfEE'/>
<use f='opencv/modules/ocl/src/hog.cpp' l='224' u='r' c='_ZN2cv3ocl13HOGDescriptor11init_bufferERKNS0_6oclMatENS_5Size_IiEE'/>
<use f='opencv/modules/ocl/src/hog.cpp' l='287' u='r' c='_ZN2cv3ocl13HOGDescriptor14getDescriptorsERKNS0_6oclMatENS_5Size_IiEERS2_i'/>
