<dec f='opencv/modules/gpu/include/opencv2/gpu/gpu.hpp' l='1317' type='Size'/>
<offset>0</offset>
<use f='opencv/modules/gpu/src/hog.cpp' l='109' u='w' c='_ZN2cv3gpu13HOGDescriptorC1ENS_5Size_IiEES3_S3_S3_iddbi'/>
<use f='opencv/modules/gpu/src/hog.cpp' l='119' u='m' c='_ZN2cv3gpu13HOGDescriptorC1ENS_5Size_IiEES3_S3_S3_iddbi'/>
<use f='opencv/modules/gpu/src/hog.cpp' l='120' u='m' c='_ZN2cv3gpu13HOGDescriptorC1ENS_5Size_IiEES3_S3_S3_iddbi'/>
<use f='opencv/modules/gpu/src/hog.cpp' l='134' u='r' c='_ZNK2cv3gpu13HOGDescriptor17getDescriptorSizeEv'/>
<use f='opencv/modules/gpu/src/hog.cpp' l='160' u='r' c='_ZN2cv3gpu13HOGDescriptor14setSVMDetectorERKSt6vectorIfSaIfEE'/>
<use f='opencv/modules/gpu/src/hog.cpp' l='221' u='r' c='_ZN2cv3gpu13HOGDescriptor22computeBlockHistogramsERKNS0_6GpuMatE'/>
<use f='opencv/modules/gpu/src/hog.cpp' l='247' u='r' c='_ZN2cv3gpu13HOGDescriptor14getDescriptorsERKNS0_6GpuMatENS_5Size_IiEERS2_i'/>
<use f='opencv/modules/gpu/src/hog.cpp' l='248' u='r' c='_ZN2cv3gpu13HOGDescriptor14getDescriptorsERKNS0_6GpuMatENS_5Size_IiEERS2_i'/>
<use f='opencv/modules/gpu/src/hog.cpp' l='255' u='m' c='_ZN2cv3gpu13HOGDescriptor14getDescriptorsERKNS0_6GpuMatENS_5Size_IiEERS2_i'/>
<use f='opencv/modules/gpu/src/hog.cpp' l='255' u='m' c='_ZN2cv3gpu13HOGDescriptor14getDescriptorsERKNS0_6GpuMatENS_5Size_IiEERS2_i'/>
<use f='opencv/modules/gpu/src/hog.cpp' l='259' u='m' c='_ZN2cv3gpu13HOGDescriptor14getDescriptorsERKNS0_6GpuMatENS_5Size_IiEERS2_i'/>
<use f='opencv/modules/gpu/src/hog.cpp' l='259' u='m' c='_ZN2cv3gpu13HOGDescriptor14getDescriptorsERKNS0_6GpuMatENS_5Size_IiEERS2_i'/>
<use f='opencv/modules/gpu/src/hog.cpp' l='284' u='r' c='_ZN2cv3gpu13HOGDescriptor17computeConfidenceERKNS0_6GpuMatERSt6vectorINS_6Point_IiEESaIS7_EEdNS_5Size_IiEESC_SA_RS5_IdSaIdEE'/>
<use f='opencv/modules/gpu/src/hog.cpp' l='287' u='m' c='_ZN2cv3gpu13HOGDescriptor17computeConfidenceERKNS0_6GpuMatERSt6vectorINS_6Point_IiEESaIS7_EEdNS_5Size_IiEESC_SA_RS5_IdSaIdEE'/>
<use f='opencv/modules/gpu/src/hog.cpp' l='287' u='m' c='_ZN2cv3gpu13HOGDescriptor17computeConfidenceERKNS0_6GpuMatERSt6vectorINS_6Point_IiEESaIS7_EEdNS_5Size_IiEESC_SA_RS5_IdSaIdEE'/>
<use f='opencv/modules/gpu/src/hog.cpp' l='322' u='m' c='_ZN2cv3gpu13HOGDescriptor27computeConfidenceMultiScaleERKNS0_6GpuMatERSt6vectorINS_5Rect_IiEESaIS7_EEdNS_5Size_IiEESC_RS5_INS0_13HOGConfidenceESaISD_EEi'/>
<use f='opencv/modules/gpu/src/hog.cpp' l='322' u='m' c='_ZN2cv3gpu13HOGDescriptor27computeConfidenceMultiScaleERKNS0_6GpuMatERSt6vectorINS_5Rect_IiEESaIS7_EEdNS_5Size_IiEESC_RS5_INS0_13HOGConfidenceESaISD_EEi'/>
<use f='opencv/modules/gpu/src/hog.cpp' l='352' u='m' c='_ZN2cv3gpu13HOGDescriptor27computeConfidenceMultiScaleERKNS0_6GpuMatERSt6vectorINS_5Rect_IiEESaIS7_EEdNS_5Size_IiEESC_RS5_INS0_13HOGConfidenceESaISD_EEi'/>
<use f='opencv/modules/gpu/src/hog.cpp' l='352' u='m' c='_ZN2cv3gpu13HOGDescriptor27computeConfidenceMultiScaleERKNS0_6GpuMatERSt6vectorINS_5Rect_IiEESaIS7_EEdNS_5Size_IiEESC_RS5_INS0_13HOGConfidenceESaISD_EEi'/>
<use f='opencv/modules/gpu/src/hog.cpp' l='378' u='r' c='_ZN2cv3gpu13HOGDescriptor6detectERKNS0_6GpuMatERSt6vectorINS_6Point_IiEESaIS7_EEdNS_5Size_IiEESC_'/>
<use f='opencv/modules/gpu/src/hog.cpp' l='382' u='m' c='_ZN2cv3gpu13HOGDescriptor6detectERKNS0_6GpuMatERSt6vectorINS_6Point_IiEESaIS7_EEdNS_5Size_IiEESC_'/>
<use f='opencv/modules/gpu/src/hog.cpp' l='382' u='m' c='_ZN2cv3gpu13HOGDescriptor6detectERKNS0_6GpuMatERSt6vectorINS_6Point_IiEESaIS7_EEdNS_5Size_IiEESC_'/>
<use f='opencv/modules/gpu/src/hog.cpp' l='412' u='m' c='_ZN2cv3gpu13HOGDescriptor16detectMultiScaleERKNS0_6GpuMatERSt6vectorINS_5Rect_IiEESaIS7_EEdNS_5Size_IiEESC_di'/>
<use f='opencv/modules/gpu/src/hog.cpp' l='413' u='m' c='_ZN2cv3gpu13HOGDescriptor16detectMultiScaleERKNS0_6GpuMatERSt6vectorINS_5Rect_IiEESaIS7_EEdNS_5Size_IiEESC_di'/>
<use f='opencv/modules/gpu/src/hog.cpp' l='444' u='m' c='_ZN2cv3gpu13HOGDescriptor16detectMultiScaleERKNS0_6GpuMatERSt6vectorINS_5Rect_IiEESaIS7_EEdNS_5Size_IiEESC_di'/>
<use f='opencv/modules/gpu/src/hog.cpp' l='444' u='m' c='_ZN2cv3gpu13HOGDescriptor16detectMultiScaleERKNS0_6GpuMatERSt6vectorINS_5Rect_IiEESaIS7_EEdNS_5Size_IiEESC_di'/>
<use f='opencv/modules/gpu/test/test_objdetect.cpp' l='236' u='r' c='_ZN23HOG_GetDescriptors_Test14UnsafeTestBodyEv'/>
<use f='opencv/modules/gpu/test/test_objdetect.cpp' l='237' u='r' c='_ZN23HOG_GetDescriptors_Test14UnsafeTestBodyEv'/>
