<dec f='opencv/modules/gpu/include/opencv2/gpu/gpu.hpp' l='1338' type='float'/>
<offset>512</offset>
<doc f='opencv/modules/gpu/include/opencv2/gpu/gpu.hpp' l='1337'>// Coefficients of the separating plane</doc>
<use f='opencv/modules/gpu/src/hog.cpp' l='174' u='w' c='_ZN2cv3gpu13HOGDescriptor14setSVMDetectorERKSt6vectorIfSaIfEE'/>
<use f='opencv/modules/gpu/src/hog.cpp' l='289' u='r' c='_ZN2cv3gpu13HOGDescriptor17computeConfidenceERKNS0_6GpuMatERSt6vectorINS_6Point_IiEESaIS7_EEdNS_5Size_IiEESC_SA_RS5_IdSaIdEE'/>
<use f='opencv/modules/gpu/src/hog.cpp' l='384' u='r' c='_ZN2cv3gpu13HOGDescriptor6detectERKNS0_6GpuMatERSt6vectorINS_6Point_IiEESaIS7_EEdNS_5Size_IiEESC_'/>
