<def f='opencv/modules/gpu/include/opencv2/gpu/gpu.hpp' l='1276' ll='1356'/>
<size>696</size>
<fun r='_ZN2cv3gpu13HOGDescriptorC1ENS_5Size_IiEES3_S3_S3_iddbi'/>
<fun r='_ZNK2cv3gpu13HOGDescriptor17getDescriptorSizeEv'/>
<fun r='_ZNK2cv3gpu13HOGDescriptor21getBlockHistogramSizeEv'/>
<fun r='_ZN2cv3gpu13HOGDescriptor14setSVMDetectorERKSt6vectorIfSaIfEE'/>
<fun r='_ZN2cv3gpu13HOGDescriptor24getDefaultPeopleDetectorEv'/>
<fun r='_ZN2cv3gpu13HOGDescriptor22getPeopleDetector48x96Ev'/>
<fun r='_ZN2cv3gpu13HOGDescriptor23getPeopleDetector64x128Ev'/>
<fun r='_ZN2cv3gpu13HOGDescriptor6detectERKNS0_6GpuMatERSt6vectorINS_6Point_IiEESaIS7_EEdNS_5Size_IiEESC_'/>
<fun r='_ZN2cv3gpu13HOGDescriptor16detectMultiScaleERKNS0_6GpuMatERSt6vectorINS_5Rect_IiEESaIS7_EEdNS_5Size_IiEESC_di'/>
<fun r='_ZN2cv3gpu13HOGDescriptor17computeConfidenceERKNS0_6GpuMatERSt6vectorINS_6Point_IiEESaIS7_EEdNS_5Size_IiEESC_SA_RS5_IdSaIdEE'/>
<fun r='_ZN2cv3gpu13HOGDescriptor27computeConfidenceMultiScaleERKNS0_6GpuMatERSt6vectorINS_5Rect_IiEESaIS7_EEdNS_5Size_IiEESC_RS5_INS0_13HOGConfidenceESaISD_EEi'/>
<fun r='_ZN2cv3gpu13HOGDescriptor14getDescriptorsERKNS0_6GpuMatENS_5Size_IiEERS2_i'/>
<mbr r='cv::gpu::HOGDescriptor::win_size' o='0' t='Size'/>
<mbr r='cv::gpu::HOGDescriptor::block_size' o='64' t='Size'/>
<mbr r='cv::gpu::HOGDescriptor::block_stride' o='128' t='Size'/>
<mbr r='cv::gpu::HOGDescriptor::cell_size' o='192' t='Size'/>
<mbr r='cv::gpu::HOGDescriptor::nbins' o='256' t='int'/>
<mbr r='cv::gpu::HOGDescriptor::win_sigma' o='320' t='double'/>
<mbr r='cv::gpu::HOGDescriptor::threshold_L2hys' o='384' t='double'/>
<mbr r='cv::gpu::HOGDescriptor::gamma_correction' o='448' t='bool'/>
<mbr r='cv::gpu::HOGDescriptor::nlevels' o='480' t='int'/>
<fun r='_ZN2cv3gpu13HOGDescriptor22computeBlockHistogramsERKNS0_6GpuMatE'/>
<fun r='_ZN2cv3gpu13HOGDescriptor15computeGradientERKNS0_6GpuMatERS2_S5_'/>
<fun r='_ZNK2cv3gpu13HOGDescriptor11getWinSigmaEv'/>
<fun r='_ZNK2cv3gpu13HOGDescriptor17checkDetectorSizeEv'/>
<fun r='_ZN2cv3gpu13HOGDescriptor14numPartsWithinEiii'/>
<fun r='_ZN2cv3gpu13HOGDescriptor14numPartsWithinENS_5Size_IiEES3_S3_'/>
<mbr r='cv::gpu::HOGDescriptor::free_coef' o='512' t='float'/>
<mbr r='cv::gpu::HOGDescriptor::detector' o='576' t='cv::gpu::GpuMat'/>
<mbr r='cv::gpu::HOGDescriptor::labels' o='1024' t='cv::gpu::GpuMat'/>
<mbr r='cv::gpu::HOGDescriptor::labels_buf' o='1472' t='cv::gpu::GpuMat'/>
<mbr r='cv::gpu::HOGDescriptor::labels_host' o='1920' t='cv::Mat'/>
<mbr r='cv::gpu::HOGDescriptor::block_hists' o='2688' t='cv::gpu::GpuMat'/>
<mbr r='cv::gpu::HOGDescriptor::block_hists_buf' o='3136' t='cv::gpu::GpuMat'/>
<mbr r='cv::gpu::HOGDescriptor::grad' o='3584' t='cv::gpu::GpuMat'/>
<mbr r='cv::gpu::HOGDescriptor::qangle' o='4032' t='cv::gpu::GpuMat'/>
<mbr r='cv::gpu::HOGDescriptor::grad_buf' o='4480' t='cv::gpu::GpuMat'/>
<mbr r='cv::gpu::HOGDescriptor::qangle_buf' o='4928' t='cv::gpu::GpuMat'/>
<fun r='_ZN2cv3gpu13HOGDescriptor9getBufferERKNS_5Size_IiEEiRNS0_6GpuMatE'/>
<fun r='_ZN2cv3gpu13HOGDescriptor9getBufferEiiiRNS0_6GpuMatE'/>
<mbr r='cv::gpu::HOGDescriptor::image_scales' o='5376' t='std::vector&lt;GpuMat&gt;'/>
<ovr f='opencv/modules/gpu/test/test_objdetect.cpp' l='51' c='HogForTest'/>
