<dec f='opencv/modules/ocl/include/opencv2/ocl/ocl.hpp' l='1087' type='float'/>
<offset>512</offset>
<doc f='opencv/modules/ocl/include/opencv2/ocl/ocl.hpp' l='1086'>// Coefficients of the separating plane</doc>
<use f='opencv/modules/ocl/src/hog.cpp' l='207' u='w' c='_ZN2cv3ocl13HOGDescriptor14setSVMDetectorERKSt6vectorIfSaIfEE'/>
<use f='opencv/modules/ocl/src/hog.cpp' l='333' u='r' c='_ZN2cv3ocl13HOGDescriptor6detectERKNS0_6oclMatERSt6vectorINS_6Point_IiEESaIS7_EEdNS_5Size_IiEESC_'/>
