<def f='opencv/modules/objdetect/include/opencv2/objdetect/objdetect.hpp' l='522' ll='632'/>
<size>112</size>
<fun r='_ZN2cv13HOGDescriptorC1Ev'/>
<fun r='_ZN2cv13HOGDescriptorC1ENS_5Size_IiEES2_S2_S2_iididbi'/>
<fun r='_ZN2cv13HOGDescriptorC1ERKSs'/>
<fun r='_ZN2cv13HOGDescriptorC1ERKS0_'/>
<fun r='_ZN2cv13HOGDescriptorD1Ev'/>
<fun r='_ZNK2cv13HOGDescriptor17getDescriptorSizeEv'/>
<fun r='_ZNK2cv13HOGDescriptor17checkDetectorSizeEv'/>
<fun r='_ZNK2cv13HOGDescriptor11getWinSigmaEv'/>
<fun r='_ZN2cv13HOGDescriptor14setSVMDetectorERKNS_11_InputArrayE'/>
<fun r='_ZN2cv13HOGDescriptor4readERNS_8FileNodeE'/>
<fun r='_ZNK2cv13HOGDescriptor5writeERNS_11FileStorageERKSs'/>
<fun r='_ZN2cv13HOGDescriptor4loadERKSsS2_'/>
<fun r='_ZNK2cv13HOGDescriptor4saveERKSsS2_'/>
<fun r='_ZNK2cv13HOGDescriptor6copyToERS0_'/>
<fun r='_ZNK2cv13HOGDescriptor7computeERKNS_3MatERSt6vectorIfSaIfEENS_5Size_IiEES9_RKS4_INS_6Point_IiEESaISB_EE'/>
<fun r='_ZNK2cv13HOGDescriptor6detectERKNS_3MatERSt6vectorINS_6Point_IiEESaIS6_EERS4_IdSaIdEEdNS_5Size_IiEESE_RKS8_'/>
<fun r='_ZNK2cv13HOGDescriptor6detectERKNS_3MatERSt6vectorINS_6Point_IiEESaIS6_EEdNS_5Size_IiEESB_RKS8_'/>
<fun r='_ZNK2cv13HOGDescriptor16detectMultiScaleERKNS_3MatERSt6vectorINS_5Rect_IiEESaIS6_EERS4_IdSaIdEEdNS_5Size_IiEESE_ddb'/>
<fun r='_ZNK2cv13HOGDescriptor16detectMultiScaleERKNS_3MatERSt6vectorINS_5Rect_IiEESaIS6_EEdNS_5Size_IiEESB_ddb'/>
<fun r='_ZNK2cv13HOGDescriptor15computeGradientERKNS_3MatERS1_S4_NS_5Size_IiEES6_'/>
<fun r='_ZN2cv13HOGDescriptor24getDefaultPeopleDetectorEv'/>
<fun r='_ZN2cv13HOGDescriptor24getDaimlerPeopleDetectorEv'/>
<mbr r='cv::HOGDescriptor::winSize' o='64' t='Size'/>
<mbr r='cv::HOGDescriptor::blockSize' o='128' t='Size'/>
<mbr r='cv::HOGDescriptor::blockStride' o='192' t='Size'/>
<mbr r='cv::HOGDescriptor::cellSize' o='256' t='Size'/>
<mbr r='cv::HOGDescriptor::nbins' o='320' t='int'/>
<mbr r='cv::HOGDescriptor::derivAperture' o='352' t='int'/>
<mbr r='cv::HOGDescriptor::winSigma' o='384' t='double'/>
<mbr r='cv::HOGDescriptor::histogramNormType' o='448' t='int'/>
<mbr r='cv::HOGDescriptor::L2HysThreshold' o='512' t='double'/>
<mbr r='cv::HOGDescriptor::gammaCorrection' o='576' t='bool'/>
<mbr r='cv::HOGDescriptor::svmDetector' o='640' t='vector&lt;float&gt;'/>
<mbr r='cv::HOGDescriptor::nlevels' o='832' t='int'/>
<fun r='_ZNK2cv13HOGDescriptor9detectROIERKNS_3MatERKSt6vectorINS_6Point_IiEESaIS6_EERS8_RS4_IdSaIdEEdNS_5Size_IiEESG_'/>
<fun r='_ZNK2cv13HOGDescriptor19detectMultiScaleROIERKNS_3MatERSt6vectorINS_5Rect_IiEESaIS6_EERS4_INS_12DetectionROIESaISA_EEdi'/>
<fun r='_ZN2cv13HOGDescriptor12readALTModelESs'/>
<fun r='_ZNK2cv13HOGDescriptor15groupRectanglesERSt6vectorINS_5Rect_IiEESaIS3_EERS1_IdSaIdEEid'/>
