<inh f='opencv/modules/ts/include/opencv2/ts/ts.hpp' l='227' c='cvtest::BaseTest'/>
<def f='opencv/modules/objdetect/test/test_latentsvmdetector.cpp' l='60' ll='65'/>
<size>32</size>
<fun r='_ZN24CV_LatentSVMDetectorTest3runEi'/>
<fun r='_ZN24CV_LatentSVMDetectorTest3runEi'/>
