<dec f='opencv/modules/objdetect/include/opencv2/objdetect/objdetect.hpp' l='236' type='CvLatentSvmDetector * cvLoadLatentSvmDetector(const char * filename)'/>
<doc f='opencv/modules/objdetect/include/opencv2/objdetect/objdetect.hpp' l='225'>/*
// load trained detector from a file
//
// API
// CvLatentSvmDetector* cvLoadLatentSvmDetector(const char* filename);
// INPUT
// filename             - path to the file containing the parameters of
                        - trained Latent SVM detector
// OUTPUT
// trained Latent SVM detector in internal representation
*/</doc>
<def f='opencv/modules/objdetect/src/latentsvmdetector.cpp' l='16' ll='39' type='CvLatentSvmDetector * cvLoadLatentSvmDetector(const char * filename)'/>
<use f='opencv/modules/objdetect/src/latentsvmdetector.cpp' l='226' u='c' c='_ZN2cv17LatentSvmDetector4loadERKSt6vectorISsSaISsEES5_'/>
<doc f='opencv/modules/objdetect/src/latentsvmdetector.cpp' l='5'>/*
// load trained detector from a file
//
// API
// CvLatentSvmDetector* cvLoadLatentSvmDetector(const char* filename);
// INPUT
// filename             - path to the file containing the parameters of
//                      - trained Latent SVM detector
// OUTPUT
// trained Latent SVM detector in internal representation
*/</doc>
<use f='opencv/modules/objdetect/test/test_latentsvmdetector.cpp' l='94' u='c' c='_ZN24CV_LatentSVMDetectorTest3runEi'/>
