<dec f='opencv/modules/objdetect/include/opencv2/objdetect/objdetect.hpp' l='218' type='CvRect'/>
<offset>0</offset>
<use f='opencv/modules/objdetect/src/latentsvmdetector.cpp' l='134' u='w' c='cvLatentSvmDetectObjects'/>
<use f='opencv/modules/objdetect/src/latentsvmdetector.cpp' l='262' u='r' c='_ZN2cv17LatentSvmDetector6detectERKNS_3MatERSt6vectorINS0_15ObjectDetectionESaIS5_EEfi'/>
<use f='opencv/modules/objdetect/test/test_latentsvmdetector.cpp' l='115' u='r' c='_ZN24CV_LatentSVMDetectorTest3runEi'/>
