<dec f='opencv/modules/objdetect/include/opencv2/objdetect/objdetect.hpp' l='219' type='float'/>
<offset>128</offset>
<use f='opencv/modules/objdetect/src/latentsvmdetector.cpp' l='128' u='w' c='cvLatentSvmDetectObjects'/>
<use f='opencv/modules/objdetect/src/latentsvmdetector.cpp' l='262' u='r' c='_ZN2cv17LatentSvmDetector6detectERKNS_3MatERSt6vectorINS0_15ObjectDetectionESaIS5_EEfi'/>
<use f='opencv/modules/objdetect/test/test_latentsvmdetector.cpp' l='116' u='r' c='_ZN24CV_LatentSVMDetectorTest3runEi'/>
