<dec f='opencv/modules/objdetect/include/opencv2/objdetect/objdetect.hpp' l='247' type='void cvReleaseLatentSvmDetector(CvLatentSvmDetector ** detector)'/>
<doc f='opencv/modules/objdetect/include/opencv2/objdetect/objdetect.hpp' l='238'>/*
// release memory allocated for CvLatentSvmDetector structure
//
// API
// void cvReleaseLatentSvmDetector(CvLatentSvmDetector** detector);
// INPUT
// detector             - CvLatentSvmDetector structure to be released
// OUTPUT
*/</doc>
<def f='opencv/modules/objdetect/src/latentsvmdetector.cpp' l='50' ll='62' type='void cvReleaseLatentSvmDetector(CvLatentSvmDetector ** detector)'/>
<use f='opencv/modules/objdetect/src/latentsvmdetector.cpp' l='175' u='c' c='_ZN2cv17LatentSvmDetector5clearEv'/>
<doc f='opencv/modules/objdetect/src/latentsvmdetector.cpp' l='41'>/*
// release memory allocated for CvLatentSvmDetector structure
//
// API
// void cvReleaseLatentSvmDetector(CvLatentSvmDetector** detector);
// INPUT
// detector             - CvLatentSvmDetector structure to be released
// OUTPUT
*/</doc>
<use f='opencv/modules/objdetect/test/test_latentsvmdetector.cpp' l='128' u='c' c='_ZN24CV_LatentSVMDetectorTest3runEi'/>
