<inh f='opencv/modules/ts/include/opencv2/ts/ts.hpp' l='227' c='cvtest::BaseTest'/>
<def f='opencv/modules/objdetect/test/test_latentsvmdetector.cpp' l='134' ll='138'/>
<size>32</size>
<doc f='opencv/modules/objdetect/test/test_latentsvmdetector.cpp' l='132'>// Test for c++ version of Latent SVM</doc>
<fun r='_ZN21LatentSVMDetectorTest3runEi'/>
<fun r='_ZN21LatentSVMDetectorTest3runEi'/>
