<inh f='opencv/modules/ts/include/opencv2/ts/ts_gtest.h' l='17824' c='testing::Test'/>
<def f='opencv/modules/objdetect/test/test_latentsvmdetector.cpp' l='309' macro='1'/>
<size>16</size>
<fun r='_ZN56Objdetect_LatentSVMDetector_cpp_DISABLED_regression_TestC1Ev'/>
<fun r='_ZN56Objdetect_LatentSVMDetector_cpp_DISABLED_regression_Test8TestBodyEv'/>
<smbr r='Objdetect_LatentSVMDetector_cpp_DISABLED_regression_Test::test_info_' t='::testing::TestInfo *const'/>
<fun r='_ZN56Objdetect_LatentSVMDetector_cpp_DISABLED_regression_TestC1ERKS_'/>
<smbr r='Objdetect_LatentSVMDetector_cpp_DISABLED_regression_Test::test_info_' t='::testing::TestInfo *const'/>
<fun r='_ZN56Objdetect_LatentSVMDetector_cpp_DISABLED_regression_Test8TestBodyEv'/>
