<dec f='include/c++/4.8/iostream' l='62' type='ostream'/>
<use f='opencv/apps/annotation/opencv_annotation.cpp' l='263' u='a' c='main'/>
<use f='opencv/apps/annotation/opencv_annotation.cpp' l='304' u='a' c='main'/>
<doc f='include/c++/4.8/iostream' l='62'>/// Linked to standard error (unbuffered)</doc>
<use f='opencv/modules/flann/include/opencv2/flann/lsh_table.h' l='162' u='a' c='_ZN7cvflann3lsh8LshTableC1EjjRSt6vectorImSaImEE'/>
<use f='opencv/modules/flann/include/opencv2/flann/lsh_table.h' l='244' u='a' c='_ZNK7cvflann3lsh8LshTable6getKeyEPKT_'/>
<use f='opencv/apps/visualisation/opencv_visualisation.cpp' l='121' u='a' c='main'/>
<use f='opencv/apps/visualisation/opencv_visualisation.cpp' l='122' u='a' c='main'/>
<use f='opencv/modules/ts/include/opencv2/ts/ts_gtest.h' l='2189' u='a' c='_ZN7testing8internal8GTestLog9GetStreamEv'/>
<use f='opencv/modules/contrib/src/ba.cpp' l='449' u='a' c='_ZN2cv13LevMarqSparse8optimizeER5CvMat'/>
<use f='opencv/modules/contrib/src/ba.cpp' l='557' u='a' c='_ZN2cv13LevMarqSparse8optimizeER5CvMat'/>
<use f='opencv/modules/contrib/src/ba.cpp' l='685' u='a' c='_ZN2cv13LevMarqSparse8optimizeER5CvMat'/>
<use f='opencv/modules/contrib/src/ba.cpp' l='709' u='a' c='_ZN2cv13LevMarqSparse8optimizeER5CvMat'/>
<use f='opencv/modules/contrib/src/templatebuffer.hpp' l='338' u='a' c='_ZN2cv14TemplateBuffer13clipHistogramEddd'/>
<use f='opencv/modules/contrib/src/templatebuffer.hpp' l='479' u='a' c='_ZN2cv14TemplateBuffer34normalizeGrayOutputCentredSigmoideET_S1_S1_PS1_S2_j'/>
<use f='opencv/modules/contrib/src/basicretinafilter.hpp' l='162' u='a' c='_ZN2cv17BasicRetinaFilter6resizeEj'/>
<use f='opencv/modules/contrib/src/basicretinafilter.cpp' l='170' u='a' c='_ZN2cv17BasicRetinaFilter21setLPfilterParametersEfffj'/>
<use f='opencv/modules/contrib/src/basicretinafilter.cpp' l='178' u='a' c='_ZN2cv17BasicRetinaFilter21setLPfilterParametersEfffj'/>
<use f='opencv/modules/contrib/src/basicretinafilter.cpp' l='205' u='a' c='_ZN2cv17BasicRetinaFilter45setProgressiveFilterConstants_CentredAccuracyEfffj'/>
<use f='opencv/modules/contrib/src/basicretinafilter.cpp' l='248' u='a' c='_ZN2cv17BasicRetinaFilter44setProgressiveFilterConstants_CustomAccuracyEfffRKSt8valarrayIfEj'/>
<use f='opencv/modules/contrib/src/basicretinafilter.cpp' l='264' u='a' c='_ZN2cv17BasicRetinaFilter44setProgressiveFilterConstants_CustomAccuracyEfffRKSt8valarrayIfEj'/>
<use f='opencv/modules/contrib/src/basicretinafilter.cpp' l='749' u='a' c='_ZN2cv17BasicRetinaFilter33_spatiotemporalLPfilter_IrregularEPfj'/>
<use f='opencv/modules/contrib/src/basicretinafilter.cpp' l='769' u='a' c='_ZN2cv17BasicRetinaFilter33_spatiotemporalLPfilter_IrregularEPKfPfj'/>
<use f='opencv/modules/contrib/src/gencolors.cpp' l='60' u='a' c='_ZL16downsamplePointsRKN2cv3MatERS0_m'/>
<use f='opencv/modules/contrib/src/imagelogpolprojection.cpp' l='159' u='a' c='_ZN2cv21ImageLogPolProjection22_initLogRetinaSamplingEdd'/>
<use f='opencv/modules/contrib/src/imagelogpolprojection.cpp' l='164' u='a' c='_ZN2cv21ImageLogPolProjection22_initLogRetinaSamplingEdd'/>
<use f='opencv/modules/contrib/src/imagelogpolprojection.cpp' l='309' u='a' c='_ZN2cv21ImageLogPolProjection27_initLogPolarCortexSamplingEdd'/>
<use f='opencv/modules/contrib/src/imagelogpolprojection.cpp' l='315' u='a' c='_ZN2cv21ImageLogPolProjection27_initLogPolarCortexSamplingEdd'/>
<use f='opencv/modules/contrib/src/retinacolor.cpp' l='469' u='a' c='_ZN2cv11RetinaColor35_interpolateImageDemultiplexedImageEPf'/>
<use f='opencv/modules/contrib/src/retinacolor.cpp' l='672' u='a' c='_ZN2cv11RetinaColor34applyKrauskopfLMS2Acr1cr2TransformERSt8valarrayIfE'/>
<use f='opencv/modules/contrib/src/retinacolor.cpp' l='688' u='a' c='_ZN2cv11RetinaColor21applyLMS2LabTransformERSt8valarrayIfE'/>
<use f='opencv/modules/contrib/src/retinafilter.cpp' l='97' u='a' c='_ZN2cv12RetinaFilterC1EjjbNS_26RETINA_COLORSAMPLINGMETHODEbdd'/>
<use f='opencv/modules/contrib/src/retinafilter.cpp' l='253' u='a' c='_ZN2cv12RetinaFilter10checkInputERKSt8valarrayIfEb'/>
<use f='opencv/modules/contrib/src/retinafilter.cpp' l='418' u='a' c='_ZN2cv12RetinaFilter17runLMSToneMappingERKSt8valarrayIfERS2_bff'/>
<use f='opencv/modules/core/src/gpumat.cpp' l='783' u='a' c='_ZN2cv3gpu5errorEPKcS2_iS2_'/>
<use f='opencv/modules/core/src/gpumat.cpp' l='784' u='m' c='_ZN2cv3gpu5errorEPKcS2_iS2_'/>
<use f='opencv/modules/gpu/test/main.cpp' l='110' u='a' c='main'/>
<use f='opencv/modules/gpu/test/main.cpp' l='115' u='a' c='main'/>
<use f='opencv/modules/highgui/test/test_ffmpeg.cpp' l='397' u='a' c='_ZN56Highgui_Video_parallel_writers_and_readers_accuracy_Test8TestBodyEv'/>
<use f='opencv/modules/objdetect/test/test_latentsvmdetector.cpp' l='195' u='a' c='_Z14compareResultsRKSt6vectorIN2cv17LatentSvmDetector15ObjectDetectionESaIS2_EES6_if'/>
<use f='opencv/modules/objdetect/test/test_latentsvmdetector.cpp' l='196' u='a' c='_Z14compareResultsRKSt6vectorIN2cv17LatentSvmDetector15ObjectDetectionESaIS2_EES6_if'/>
<use f='opencv/modules/objdetect/test/test_latentsvmdetector.cpp' l='264' u='a' c='_ZN21LatentSVMDetectorTest3runEi'/>
<use f='opencv/modules/objdetect/test/test_latentsvmdetector.cpp' l='269' u='a' c='_ZN21LatentSVMDetectorTest3runEi'/>
<use f='opencv/modules/objdetect/test/test_latentsvmdetector.cpp' l='274' u='a' c='_ZN21LatentSVMDetectorTest3runEi'/>
<use f='opencv/modules/objdetect/test/test_latentsvmdetector.cpp' l='288' u='a' c='_ZN21LatentSVMDetectorTest3runEi'/>
<use f='opencv/modules/objdetect/test/test_latentsvmdetector.cpp' l='294' u='a' c='_ZN21LatentSVMDetectorTest3runEi'/>
<use f='opencv/modules/objdetect/test/test_latentsvmdetector.cpp' l='301' u='a' c='_ZN21LatentSVMDetectorTest3runEi'/>
<use f='opencv/modules/ocl/src/cl_context.cpp' l='281' u='a' c='_ZN2cv3oclL30parseOpenCLDeviceConfigurationERKSsRSsRSt6vectorISsSaISsEES3_'/>
<use f='opencv/modules/ocl/src/cl_context.cpp' l='360' u='a' c='_ZN2cv3oclL18selectOpenCLDeviceEv'/>
<use f='opencv/modules/ocl/src/cl_context.cpp' l='398' u='a' c='_ZN2cv3oclL18selectOpenCLDeviceEv'/>
<use f='opencv/modules/ocl/src/cl_context.cpp' l='415' u='a' c='_ZN2cv3oclL18selectOpenCLDeviceEv'/>
<use f='opencv/modules/ocl/src/cl_context.cpp' l='425' u='a' c='_ZN2cv3oclL18selectOpenCLDeviceEv'/>
<use f='opencv/modules/ocl/src/cl_context.cpp' l='434' u='a' c='_ZN2cv3oclL18selectOpenCLDeviceEv'/>
<use f='opencv/modules/ocl/src/cl_context.cpp' l='439' u='a' c='_ZN2cv3oclL18selectOpenCLDeviceEv'/>
<use f='opencv/modules/ocl/src/cl_context.cpp' l='441' u='m' c='_ZN2cv3oclL18selectOpenCLDeviceEv'/>
<use f='opencv/modules/ocl/src/cl_programcache.cpp' l='225' u='a' c='_ZN2cv3ocl16ProgramFileCache25readConfigurationFromFileERKSsRSt6vectorIcSaIcEE'/>
<use f='opencv/modules/ocl/src/cl_programcache.cpp' l='242' u='a' c='_ZN2cv3ocl16ProgramFileCache25readConfigurationFromFileERKSsRSt6vectorIcSaIcEE'/>
<use f='opencv/modules/ocl/src/cl_programcache.cpp' l='327' u='a' c='_ZN2cv3ocl16ProgramFileCache24writeConfigurationToFileERKSsRSt6vectorIcSaIcEE'/>
<use f='opencv/modules/ocl/src/cl_programcache.cpp' l='411' u='a' c='_ZN2cv3ocl16ProgramFileCache17getOrBuildProgramEPKNS0_7ContextEPKNS0_12ProgramEntryERKSs'/>
<use f='opencv/modules/ocl/src/error.cpp' l='183' u='a' c='_ZN2cv3ocl5errorEPKcS2_iS2_'/>
<use f='opencv/modules/ocl/src/error.cpp' l='184' u='m' c='_ZN2cv3ocl5errorEPKcS2_iS2_'/>
