_ZN2cv13HOGDescriptorC1Ev|cv::HOGDescriptor::HOGDescriptor
_ZN2cv13HOGDescriptorD1Ev|cv::HOGDescriptor::~HOGDescriptor
_ZN2cv8colormap3Hot4initEi|cv::colormap::Hot::init
_ZNK5Eigen19ColPivHouseholderQR12householderQEv|Eigen::ColPivHouseholderQR::householderQ
_ZNK5Eigen23HessenbergDecomposition23householderCoefficientsEv|Eigen::HessenbergDecomposition::householderCoefficients
_ZNK5Eigen11Homogeneous5coeffENS_8internal6traitsINS_11HomogeneousIT_XT0_EEEE5IndexES8_|Eigen::Homogeneous::coeff
_ZNK5Eigen11Homogeneous4colsEv|Eigen::Homogeneous::cols
_ZNK5Eigen11HomogeneousmlERKNS_10MatrixBaseIT_EE|Eigen::Homogeneous::operator*
_ZNK5Eigen11Homogeneous4rowsEv|Eigen::Homogeneous::rows
_ZNK5Eigen13HouseholderQR14absDeterminantEv|Eigen::HouseholderQR::absDeterminant
_ZNK5Eigen13HouseholderQR4colsEv|Eigen::HouseholderQR::cols
_ZN5Eigen13HouseholderQR7computeERKT_|Eigen::HouseholderQR::compute
_ZNK5Eigen13HouseholderQR7hCoeffsEv|Eigen::HouseholderQR::hCoeffs
_ZNK5Eigen13HouseholderQR12householderQEv|Eigen::HouseholderQR::householderQ
_ZNK5Eigen13HouseholderQR17logAbsDeterminantEv|Eigen::HouseholderQR::logAbsDeterminant
_ZNK5Eigen13HouseholderQR8matrixQREv|Eigen::HouseholderQR::matrixQR
_ZNK5Eigen13HouseholderQR4rowsEv|Eigen::HouseholderQR::rows
_ZNK5Eigen13HouseholderQR5solveERKNS_10MatrixBaseIT_EE|Eigen::HouseholderQR::solve
_ZNK5Eigen19HouseholderSequence7adjointEv|Eigen::HouseholderSequence::adjoint
_ZNK5Eigen19HouseholderSequence18applyThisOnTheLeftERT_|Eigen::HouseholderSequence::applyThisOnTheLeft
_ZNK5Eigen19HouseholderSequence19applyThisOnTheRightERT_|Eigen::HouseholderSequence::applyThisOnTheRight
_ZNK5Eigen19HouseholderSequence4colsEv|Eigen::HouseholderSequence::cols
_ZNK5Eigen19HouseholderSequence9conjugateEv|Eigen::HouseholderSequence::conjugate
_ZNK5Eigen19HouseholderSequence15essentialVectorENT_5IndexE|Eigen::HouseholderSequence::essentialVector
_ZNK5Eigen19HouseholderSequence6evalToERT_|Eigen::HouseholderSequence::evalTo
_ZNK5Eigen19HouseholderSequence7inverseEv|Eigen::HouseholderSequence::inverse
_ZNK5Eigen19HouseholderSequence6lengthEv|Eigen::HouseholderSequence::length
_ZNK5Eigen19HouseholderSequencemlERKNS_10MatrixBaseIT_EE|Eigen::HouseholderSequence::operator*
_ZNK5Eigen19HouseholderSequence4rowsEv|Eigen::HouseholderSequence::rows
_ZN5Eigen19HouseholderSequence9setLengthENT_5IndexE|Eigen::HouseholderSequence::setLength
_ZN5Eigen19HouseholderSequence8setShiftENT_5IndexE|Eigen::HouseholderSequence::setShift
_ZN5Eigen19HouseholderSequence8setTransEb|Eigen::HouseholderSequence::setTrans
_ZNK5Eigen19HouseholderSequence5shiftEv|Eigen::HouseholderSequence::shift
_ZNK5Eigen19HouseholderSequence5transEv|Eigen::HouseholderSequence::trans
_ZNK5Eigen19HouseholderSequence9transposeEv|Eigen::HouseholderSequence::transpose
_ZNK5Eigen10MatrixBase11homogeneousEv|Eigen::MatrixBase::homogeneous
_ZNK5Eigen10MatrixBase13householderQrEv|Eigen::MatrixBase::householderQr
_ZNK5Eigen18Tridiagonalization23householderCoefficientsEv|Eigen::Tridiagonalization::householderCoefficients
_ZNK5Eigen12VectorwiseOp11homogeneousEv|Eigen::VectorwiseOp::homogeneous
_ZN5Eigen19householderSequenceERKT_RKT0_|Eigen::householderSequence
_ZNK5Eigen8internal22UpperBidiagonalization11householderEv|Eigen::internal::UpperBidiagonalization::householder
_ZNK5Eigen8internal22UpperBidiagonalization12householderUEv|Eigen::internal::UpperBidiagonalization::householderU
_ZN5Eigen8internal22UpperBidiagonalization12householderVEv|Eigen::internal::UpperBidiagonalization::householderV
_ZN5Eigen8internal30householder_qr_inplace_blockedERT_RT0_NS1_5IndexEPNS1_6ScalarE|Eigen::internal::householder_qr_inplace_blocked
_ZN5Eigen8internal32householder_qr_inplace_unblockedERT_RT0_PNS1_6ScalarE|Eigen::internal::householder_qr_inplace_unblocked
_ZN2cv3gpu13HOGDescriptorC1ENS_5Size_IiEES3_S3_S3_iddbi|cv::gpu::HOGDescriptor::HOGDescriptor
_ZNK2cv3gpu13HOGDescriptor17checkDetectorSizeEv|cv::gpu::HOGDescriptor::checkDetectorSize
_ZN2cv3gpu13HOGDescriptor22computeBlockHistogramsERKNS0_6GpuMatE|cv::gpu::HOGDescriptor::computeBlockHistograms
_ZN2cv3gpu13HOGDescriptor17computeConfidenceERKNS0_6GpuMatERSt6vectorINS_6Point_IiEESaIS7_EEdNS_5Size_IiEESC_SA_RS5_IdSaIdEE|cv::gpu::HOGDescriptor::computeConfidence
_ZN2cv3gpu13HOGDescriptor27computeConfidenceMultiScaleERKNS0_6GpuMatERSt6vectorINS_5Rect_IiEESaIS7_EEdNS_5Size_IiEESC_RS5_INS0_13HOGConfidenceESaISD_EEi|cv::gpu::HOGDescriptor::computeConfidenceMultiScale
_ZN2cv3gpu13HOGDescriptor15computeGradientERKNS0_6GpuMatERS2_S5_|cv::gpu::HOGDescriptor::computeGradient
_ZN2cv3gpu13HOGDescriptor6detectERKNS0_6GpuMatERSt6vectorINS_6Point_IiEESaIS7_EEdNS_5Size_IiEESC_|cv::gpu::HOGDescriptor::detect
_ZN2cv3gpu13HOGDescriptor16detectMultiScaleERKNS0_6GpuMatERSt6vectorINS_5Rect_IiEESaIS7_EEdNS_5Size_IiEESC_di|cv::gpu::HOGDescriptor::detectMultiScale
_ZNK2cv3gpu13HOGDescriptor21getBlockHistogramSizeEv|cv::gpu::HOGDescriptor::getBlockHistogramSize
_ZN2cv3gpu13HOGDescriptor9getBufferERKNS_5Size_IiEEiRNS0_6GpuMatE|cv::gpu::HOGDescriptor::getBuffer
_ZN2cv3gpu13HOGDescriptor24getDefaultPeopleDetectorEv|cv::gpu::HOGDescriptor::getDefaultPeopleDetector
_ZNK2cv3gpu13HOGDescriptor17getDescriptorSizeEv|cv::gpu::HOGDescriptor::getDescriptorSize
_ZN2cv3gpu13HOGDescriptor14getDescriptorsERKNS0_6GpuMatENS_5Size_IiEERS2_i|cv::gpu::HOGDescriptor::getDescriptors
_ZN2cv3gpu13HOGDescriptor22getPeopleDetector48x96Ev|cv::gpu::HOGDescriptor::getPeopleDetector48x96
_ZN2cv3gpu13HOGDescriptor23getPeopleDetector64x128Ev|cv::gpu::HOGDescriptor::getPeopleDetector64x128
_ZNK2cv3gpu13HOGDescriptor11getWinSigmaEv|cv::gpu::HOGDescriptor::getWinSigma
_ZN2cv3gpu13HOGDescriptor14numPartsWithinEiii|cv::gpu::HOGDescriptor::numPartsWithin
_ZN2cv3gpu13HOGDescriptor14setSVMDetectorERKSt6vectorIfSaIfEE|cv::gpu::HOGDescriptor::setSVMDetector
_ZN2cv3gpu12HoughCirclesERKNS0_6GpuMatERS1_iffiiiii|cv::gpu::HoughCircles
_ZN2cv3gpu20HoughCirclesDownloadERKNS0_6GpuMatERKNS_12_OutputArrayE|cv::gpu::HoughCirclesDownload
_ZN2cv3gpu10HoughLinesERKNS0_6GpuMatERS1_ffibi|cv::gpu::HoughLines
_ZN2cv3gpu18HoughLinesDownloadERKNS0_6GpuMatERKNS_12_OutputArrayES6_|cv::gpu::HoughLinesDownload
_ZN2cv3gpu11HoughLinesPERKNS0_6GpuMatERS1_RNS0_13HoughLinesBufEffiii|cv::gpu::HoughLinesP
_ZN12HoughCircles11drawCirclesERN2cv3MatERKSt6vectorINS0_3VecIfLi3EEESaIS5_EEb|HoughCircles::drawCircles
_ZN10HoughLines9drawLinesERN2cv3MatERKSt6vectorINS0_3VecIfLi2EEESaIS5_EE|HoughLines::drawLines
_ZN10HoughLines13generateLinesERN2cv3MatE|HoughLines::generateLines
_ZN3HOG5SetUpEv|HOG::SetUp
_ZN2cv12HoughCirclesERKNS_11_InputArrayERKNS_12_OutputArrayEiddddii|cv::HoughCircles
_ZN2cv10HoughLinesERKNS_11_InputArrayERKNS_12_OutputArrayEddidd|cv::HoughLines
_ZN2cv11HoughLinesPERKNS_11_InputArrayERKNS_12_OutputArrayEddidd|cv::HoughLinesP
_ZN2cv12HOGEvaluatorC1Ev|cv::HOGEvaluator::HOGEvaluator
_ZNK2cv12HOGEvaluator7calcOrdEi|cv::HOGEvaluator::calcOrd
_ZNK2cv12HOGEvaluator5cloneEv|cv::HOGEvaluator::clone
_ZNK2cv12HOGEvaluator14getFeatureTypeEv|cv::HOGEvaluator::getFeatureType
_ZNK2cv12HOGEvaluator17integralHistogramERKNS_3MatERSt6vectorIS1_SaIS1_EERS1_i|cv::HOGEvaluator::integralHistogram
_ZNK2cv12HOGEvaluatorclEi|cv::HOGEvaluator::operator()
_ZN2cv12HOGEvaluator4readERKNS_8FileNodeE|cv::HOGEvaluator::read
_ZN2cv12HOGEvaluator8setImageERKNS_3MatENS_5Size_IiEE|cv::HOGEvaluator::setImage
_ZN2cv12HOGEvaluator9setWindowENS_6Point_IiEE|cv::HOGEvaluator::setWindow
_ZN2cv12HOGEvaluatorD1Ev|cv::HOGEvaluator::~HOGEvaluator
_ZN2cv8HOGCache4initEPKNS_13HOGDescriptorERKNS_3MatENS_5Size_IiEES8_bS8_|cv::HOGCache::init
_ZNK2cv8HOGCache23normalizeBlockHistogramEPf|cv::HOGCache::normalizeBlockHistogram
_ZN2cv8HOGCacheD1Ev|cv::HOGCache::~HOGCache
_ZNK2cv14HOGConfInvokerclERKNS_5RangeE|cv::HOGConfInvoker::operator()
_ZNK2cv13HOGDescriptor17checkDetectorSizeEv|cv::HOGDescriptor::checkDetectorSize
_ZNK2cv13HOGDescriptor7computeERKNS_3MatERSt6vectorIfSaIfEENS_5Size_IiEES9_RKS4_INS_6Point_IiEESaISB_EE|cv::HOGDescriptor::compute
_ZNK2cv13HOGDescriptor15computeGradientERKNS_3MatERS1_S4_NS_5Size_IiEES6_|cv::HOGDescriptor::computeGradient
_ZNK2cv13HOGDescriptor6copyToERS0_|cv::HOGDescriptor::copyTo
_ZNK2cv13HOGDescriptor6detectERKNS_3MatERSt6vectorINS_6Point_IiEESaIS6_EERS4_IdSaIdEEdNS_5Size_IiEESE_RKS8_|cv::HOGDescriptor::detect
_ZNK2cv13HOGDescriptor16detectMultiScaleERKNS_3MatERSt6vectorINS_5Rect_IiEESaIS6_EERS4_IdSaIdEEdNS_5Size_IiEESE_ddb|cv::HOGDescriptor::detectMultiScale
_ZNK2cv13HOGDescriptor19detectMultiScaleROIERKNS_3MatERSt6vectorINS_5Rect_IiEESaIS6_EERS4_INS_12DetectionROIESaISA_EEdi|cv::HOGDescriptor::detectMultiScaleROI
_ZNK2cv13HOGDescriptor9detectROIERKNS_3MatERKSt6vectorINS_6Point_IiEESaIS6_EERS8_RS4_IdSaIdEEdNS_5Size_IiEESG_|cv::HOGDescriptor::detectROI
_ZN2cv13HOGDescriptor24getDaimlerPeopleDetectorEv|cv::HOGDescriptor::getDaimlerPeopleDetector
_ZN2cv13HOGDescriptor24getDefaultPeopleDetectorEv|cv::HOGDescriptor::getDefaultPeopleDetector
_ZNK2cv13HOGDescriptor17getDescriptorSizeEv|cv::HOGDescriptor::getDescriptorSize
_ZNK2cv13HOGDescriptor11getWinSigmaEv|cv::HOGDescriptor::getWinSigma
_ZNK2cv13HOGDescriptor15groupRectanglesERSt6vectorINS_5Rect_IiEESaIS3_EERS1_IdSaIdEEid|cv::HOGDescriptor::groupRectangles
_ZN2cv13HOGDescriptor4loadERKSsS2_|cv::HOGDescriptor::load
_ZN2cv13HOGDescriptor4readERNS_8FileNodeE|cv::HOGDescriptor::read
_ZN2cv13HOGDescriptor12readALTModelESs|cv::HOGDescriptor::readALTModel
_ZNK2cv13HOGDescriptor4saveERKSsS2_|cv::HOGDescriptor::save
_ZN2cv13HOGDescriptor14setSVMDetectorERKNS_11_InputArrayE|cv::HOGDescriptor::setSVMDetector
_ZNK2cv13HOGDescriptor5writeERNS_11FileStorageERKSs|cv::HOGDescriptor::write
_ZNK2cv10HOGInvokerclERKNS_5RangeE|cv::HOGInvoker::operator()
_ZN2cv3ocl13HOGDescriptorC1ENS_5Size_IiEES3_S3_S3_iddbi|cv::ocl::HOGDescriptor::HOGDescriptor
_ZNK2cv3ocl13HOGDescriptor17checkDetectorSizeEv|cv::ocl::HOGDescriptor::checkDetectorSize
_ZN2cv3ocl13HOGDescriptor22computeBlockHistogramsERKNS0_6oclMatE|cv::ocl::HOGDescriptor::computeBlockHistograms
_ZN2cv3ocl13HOGDescriptor15computeGradientERKNS0_6oclMatERS2_S5_|cv::ocl::HOGDescriptor::computeGradient
_ZN2cv3ocl13HOGDescriptor6detectERKNS0_6oclMatERSt6vectorINS_6Point_IiEESaIS7_EEdNS_5Size_IiEESC_|cv::ocl::HOGDescriptor::detect
_ZN2cv3ocl13HOGDescriptor16detectMultiScaleERKNS0_6oclMatERSt6vectorINS_5Rect_IiEESaIS7_EEdNS_5Size_IiEESC_di|cv::ocl::HOGDescriptor::detectMultiScale
_ZNK2cv3ocl13HOGDescriptor21getBlockHistogramSizeEv|cv::ocl::HOGDescriptor::getBlockHistogramSize
_ZN2cv3ocl13HOGDescriptor24getDefaultPeopleDetectorEv|cv::ocl::HOGDescriptor::getDefaultPeopleDetector
_ZNK2cv3ocl13HOGDescriptor17getDescriptorSizeEv|cv::ocl::HOGDescriptor::getDescriptorSize
_ZN2cv3ocl13HOGDescriptor14getDescriptorsERKNS0_6oclMatENS_5Size_IiEERS2_i|cv::ocl::HOGDescriptor::getDescriptors
_ZN2cv3ocl13HOGDescriptor22getPeopleDetector48x96Ev|cv::ocl::HOGDescriptor::getPeopleDetector48x96
_ZN2cv3ocl13HOGDescriptor23getPeopleDetector64x128Ev|cv::ocl::HOGDescriptor::getPeopleDetector64x128
_ZNK2cv3ocl13HOGDescriptor11getWinSigmaEv|cv::ocl::HOGDescriptor::getWinSigma
_ZN2cv3ocl13HOGDescriptor11init_bufferERKNS0_6oclMatENS_5Size_IiEE|cv::ocl::HOGDescriptor::init_buffer
_ZN2cv3ocl13HOGDescriptor14numPartsWithinEiii|cv::ocl::HOGDescriptor::numPartsWithin
_ZN2cv3ocl13HOGDescriptor14setSVMDetectorERKSt6vectorIfSaIfEE|cv::ocl::HOGDescriptor::setSVMDetector
_ZN2cv3ocl6device3hog14classify_histsEiiiiiiiiRKNS0_6oclMatES5_ffRS3_|cv::ocl::device::hog::classify_hists
_ZN2cv3ocl6device3hog22compute_gradients_8UC1EiiRKNS0_6oclMatEfRS3_S6_b|cv::ocl::device::hog::compute_gradients_8UC1
_ZN2cv3ocl6device3hog22compute_gradients_8UC4EiiRKNS0_6oclMatEfRS3_S6_b|cv::ocl::device::hog::compute_gradients_8UC4
_ZN2cv3ocl6device3hog13compute_histsEiiiiiRKNS0_6oclMatES5_S5_RS3_|cv::ocl::device::hog::compute_hists
_ZN2cv3ocl6device3hog22extract_descrs_by_colsEiiiiiiiiRKNS0_6oclMatERS3_|cv::ocl::device::hog::extract_descrs_by_cols
_ZN2cv3ocl6device3hog22extract_descrs_by_rowsEiiiiiiiiRKNS0_6oclMatERS3_|cv::ocl::device::hog::extract_descrs_by_rows
_ZN2cv3ocl6device3hog15normalize_histsEiiiiiRNS0_6oclMatEf|cv::ocl::device::hog::normalize_hists
_ZN2cv3ocl6device3hog16set_up_constantsEiiiii|cv::ocl::device::hog::set_up_constants
_ZN3HOG5SetUpEv|HOG::SetUp
_ZN2cv6detail24HomographyBasedEstimatorC1Eb|cv::detail::HomographyBasedEstimator::HomographyBasedEstimator
_ZN2cv6detail24HomographyBasedEstimator8estimateERKSt6vectorINS0_13ImageFeaturesESaIS3_EERKS2_INS0_11MatchesInfoESaIS8_EERS2_INS0_12CameraParamsESaISD_EE|cv::detail::HomographyBasedEstimator::estimate
