_ZN5Eigen9DenseBase10lazyAssignERKNS_9DenseBaseIT_EE|Eigen::DenseBase::lazyAssign
_ZN5Eigen10MatrixBase10lazyAssignERKNS_11ProductBaseIT_T0_T1_EE|Eigen::MatrixBase::lazyAssign
_ZNK5Eigen10MatrixBase11lazyProductERKNS_10MatrixBaseIT_EE|Eigen::MatrixBase::lazyProduct
_ZN5Eigen15PlainObjectBase10lazyAssignERKNS_9DenseBaseIT_EE|Eigen::PlainObjectBase::lazyAssign
_ZN5Eigen17SelfCwiseBinaryOp10lazyAssignERKNS_9DenseBaseIT_EE|Eigen::SelfCwiseBinaryOp::lazyAssign
_ZN5Eigen14TriangularView10lazyAssignERKNS_10MatrixBaseIT_EE|Eigen::TriangularView::lazyAssign
_ZN2cv3gpu26FastNonLocalMeansDenoising9labMethodERKNS0_6GpuMatERS2_ffiiRNS0_6StreamE|cv::gpu::FastNonLocalMeansDenoising::labMethod
_ZN2cv3gpu9LaplacianERKNS0_6GpuMatERS1_iidiRNS0_6StreamE|cv::gpu::Laplacian
_ZN2cv3gpu15labelComponentsERKNS0_6GpuMatERS1_iRNS0_6StreamE|cv::gpu::labelComponents
_ZN9Laplacian5SetUpEv|Laplacian::SetUp
_ZN8Labeling5SetUpEv|Labeling::SetUp
_ZN2cv9LaplacianERKNS_11_InputArrayERKNS_12_OutputArrayEiiddi|cv::Laplacian
_ZN2cv17LatentSvmDetectorC1Ev|cv::LatentSvmDetector::LatentSvmDetector
_ZN2cv17LatentSvmDetector5clearEv|cv::LatentSvmDetector::clear
_ZN2cv17LatentSvmDetector6detectERKNS_3MatERSt6vectorINS0_15ObjectDetectionESaIS5_EEfi|cv::LatentSvmDetector::detect
_ZNK2cv17LatentSvmDetector5emptyEv|cv::LatentSvmDetector::empty
_ZNK2cv17LatentSvmDetector13getClassCountEv|cv::LatentSvmDetector::getClassCount
_ZNK2cv17LatentSvmDetector13getClassNamesEv|cv::LatentSvmDetector::getClassNames
_ZN2cv17LatentSvmDetector4loadERKSt6vectorISsSaISsEES5_|cv::LatentSvmDetector::load
_ZN2cv17LatentSvmDetectorD1Ev|cv::LatentSvmDetector::~LatentSvmDetector
_ZN21LatentSVMDetectorTest3runEi|LatentSVMDetectorTest::run
_ZN2cv3ocl9LaplacianERKNS0_6oclMatERS1_iiddi|cv::ocl::Laplacian
_ZN7testing8internal9DeathTest11LastMessageEv|testing::internal::DeathTest::LastMessage
